tree
version=v4
num_class=1
num_tree_per_iteration=1
label_index=0
max_feature_idx=33
objective=binary sigmoid:1
feature_names=log_launch_price publisher_size_log release_year release_quarter release_month release_weekday is_holiday_season is_summer_sale_window early_access mature Achievements is_multiplatform_refined exclusive_steam is_multi_store_pc is_cross_platform genre_cluster_strategy_sim genre_cluster_mmo is_autumn_sale_window within_7d_of_steam_sale franchise_count_prev developer_size_log publisher_size_bin__Small_(≤5) publisher_size_bin__Medium_(6–15) publisher_size_bin__Large_(16–50) publisher_size_bin__Major_(>50) developer_size_bin__Solo/Indie_(≤2) developer_size_bin__Small_(3–5) developer_size_bin__Mid_(6–15) developer_size_bin__Large_(>15) price_x_multiplatform publisher_x_multiplatform developer_x_multiplatform price_x_pubsize price_x_devsize
feature_infos=[0:3.3138223021771545] [0.69314718055994529:5.0875963352323836] [2021:2024] [1:4] [1:12] [0:6] [0:1] [0:1] [0:1] [0:1] [0:55] [0:1] [0:1] [0:1] [0:1] [0:1] [0:1] [0:1] [0:1] [0:13736] [0.69314718055994529:5.0875963352323836] [0:1] [0:1] [0:1] [0:1] [0:1] [0:1] [0:1] [0:1] [0:3.3138223021771545] [0:4.5849674786705723] [0:4.1271343850450917] [0:15.193767485575499] [0:13.883771322549441]
tree_sizes=13270 13411 13398 12197 13436 13435 13373 13477 13489 13450 12768 13458 10928 13345 11413 12995 8149 10151 9382 13508 11756 9459 7102 12673 8807 11556 8258 6041 11108 9697 4798 5735 10053 7004 12817 9409 6844 5704 9865 9138 8663 13598 13621 4388 9255 4921 9622 13643 10795 6511 7585 10142 5889 10553 8863 10306 4706 10342 4582 5472 13687 5444 6302 9150 4388 11400 7868 9939 3431 5673 4357 8135 13419 6198 6398 5572 10856 5049 7181 6428 8448 9108 6852 8859 5022 3735 4622 5033 4770 4066 6508 4878 4959 4250 3748 8945 4976 5946 7488 13692 13656 10604 5214 11867 6292 12159 9884 3951 11533 3229 12724 6511 2380 11576 11957 13260 3216 12279 4769 5713 4482 3775 8744 3795 4045 6397 8062 4215 5123 5321 3687 3283 2518 3478 8518 2737 2905 12185 3463 6760 7476 3118 6349 1984 4210 13616 3338 6672 13695 8315 6405 13687 3953 5469 3719 12649 3990 13636 1886 6394 2989 2328 13677 2436 3225 3530 13534 7873 5387 13296 6242 4536 13647 10648 3577 5719 3251 3771 5460 3914 5782 6096 13600 4665 4851 13688 4290 13355 11938 11661 3930 11606 10530 4293 4292 2319 10789 5909 4517 10974 10023 6194 2747 9861 6667 4609 12807 6335 12100 9744 13238 6738 12870 3855 3350 8047 12443 9418 6617 3032 5878 8671 4393 5254 6762 13076 4127 4526 9503 5988 12039 7151 2207 3994 4201 4322 12189 9671 8094 11366 3161 4326 5088 5267 3901 3774 4284 13011 5823 3694 3681 3063 4933 4205 13647 3303 3161 4610 9225 6045 4349 2523 1773 3306 3780 2611 3169 4256 8633 13671 4160 3699 6453 7152 4968 6110 3498 5970 4778 6757 4058 2217 3333 3334 5117 4237 5618 2846 7418 5223 5982 4905 6380 9729 6039 8016 8779 5676 13668 3668 5532 5597 3740 3960 5475 3847 6410 6690 9555 6846 4111 11331 4550 2565 5295 6429 2693 7307 2393 4930 5245 5441 13693 7445 6500 13383 6190 5464 6070 12832 2901 3042 4391 4980 13679 9548 11254 5994 13680 5946 5507 9846 11087 13611 6852 7220 7028 5978 6649 8163 3760 12863 9195 5570 6891 5065 11342 11359 11374 13642 10911 13717 7050 2098 13746 7382 5864 9063 3224 5541 12283 7438 1994 7395 4127 7881 4178 6614 9183 7193 5604 8783 5871 13701 3072 5219 12177 5513 5231 8101 11984 10602 6922 7038 6791 12128 5453 5870 6869 13574 13587 13701 13635 13668 13594 13714 4032 6593 13727 8492 4175 7640 4072 6739 7814 12816 5511 3466 5732 4604 6777 13698 4214 6687 4493 5765 7197 4749 5192 6784 8166 6272 5770 4972 12147 7364 5858 4193 5876 13665 4791 12507 13594 12403 4155 7395 4458 4925 4391 6635 4129 2869 4335 2800 7088 13742 13642 13641 8308 13633 3828 4748 6121 11554 8648 13390 3299 6175 7206 6294 2931 4634 4323 4731 3193 5440 2434 5646 4798 6381 12834 7285 5866 3263 6268 13718 4427 13653 3127 7517 2847 5458 4070 3991 2819 13653 3028 3200 4686 3899

Tree=0
num_leaves=127
num_cat=0
split_feature=0 10 2 0 21 3 8 0 13 10 32 33 33 24 3 0 15 33 9 10 19 19 32 9 32 8 19 19 10 0 4 9 23 10 4 4 32 33 32 33 19 19 3 4 33 4 4 33 32 23 33 32 0 32 19 4 19 2 3 7 33 11 10 3 19 32 19 32 33 8 32 19 33 10 4 2 33 32 10 33 0 33 4 0 19 33 32 19 19 10 32 33 33 9 32 4 33 33 10 19 32 10 32 19 8 19 33 0 19 19 19 10 0 33 10 33 19 15 4 32 19 3 32 0 2 19
split_gain=771.721 341.262 307.978 225.142 293.354 155.961 149.965 139.566 117.039 117.793 196.451 125.547 104.985 130.704 95.7344 114.051 92.6107 102.725 90.9124 88.1712 80.1787 122.747 88.7675 88.3377 67.1489 64.8162 63.1035 60.0158 59.977 58.7661 57.6925 56.4916 74.8365 57.1503 55.604 52.6013 48.0392 47.1971 54.2599 42.495 41.7252 65.8503 41.3438 40.7417 36.8966 36.1704 35.7802 36.8874 34.5793 33.9791 50.2249 38.6916 33.4142 32.5603 30.7734 29.7517 29.5262 63.2385 29.3997 28.5438 28.249 28.0877 34.4903 38.276 27.8354 29.5828 27.5726 44.2952 27.3584 26.8446 26.6777 26.4526 26.0872 25.8376 25.8044 25.626 39.5213 32.0403 24.4464 25.4594 24.3993 35.8309 26.0163 23.2743 23.0851 22.9599 26.5583 22.7999 44.0887 40.4545 23.4466 22.5356 21.7663 21.6854 21.109 21.0251 20.3775 25.03 20.2218 20.1921 35.4841 35.4645 20.1775 19.0182 18.8916 18.7302 18.5598 47.2014 86.3938 29.0503 23.7799 23.4802 18.2629 18.2417 20.4833 17.883 17.6394 24.2493 17.6279 16.9858 16.8141 24.5653 16.7967 16.7351 16.2414 37.0264
threshold=2.4936185050838486 13.500000000000002 2022.5000000000002 3.285767075415277 1.0000000180025095e-35 3.5000000000000004 1.0000000180025095e-35 1.7909254406777066 1.0000000180025095e-35 1.0000000180025095e-35 1.7639025068199086 6.7897250558079856 6.3345652672368402 1.0000000180025095e-35 3.5000000000000004 2.8612204918231416 1.0000000180025095e-35 4.1946400550949958 1.0000000180025095e-35 1.0000000180025095e-35 4429.0000000000009 2441.5000000000005 2.8805613220538961 1.0000000180025095e-35 2.6338576172896668 1.0000000180025095e-35 10939.500000000002 10306.500000000002 30.500000000000004 2.8026068289618116 7.5000000000000009 1.0000000180025095e-35 1.0000000180025095e-35 1.0000000180025095e-35 5.5000000000000009 4.5000000000000009 10.079365989301349 1.2368842851602115 4.9859429674987625 3.7230042092383773 1359.5000000000002 2379.5000000000005 1.5000000000000002 8.5000000000000018 1.3424366481084753 10.500000000000002 4.5000000000000009 3.4820974153541857 2.2803414440750882 1.0000000180025095e-35 4.4636607202189049 3.0424794803376858 2.1854322849838455 4.2299837174271468 9348.5000000000018 2.5000000000000004 10710.500000000002 2023.5000000000002 2.5000000000000004 1.0000000180025095e-35 1.6617791374188753 1.0000000180025095e-35 32.500000000000007 2.5000000000000004 5163.5000000000009 3.1884854012679611 4650.5000000000009 2.1101370695099555 0.47871579930198721 1.0000000180025095e-35 0.75758941539722502 13101.000000000002 2.8076077635796088 27.500000000000004 7.5000000000000009 2021.5000000000002 3.8600643041260372 1.9629462255125694 52.500000000000007 3.6252241560945917 2.0775645856199509 1.2042314545796711 1.5000000000000002 1.3479888099339705 11353.000000000002 2.413287242135548 1.9675326972168785 11738.500000000002 9234.0000000000018 16.500000000000004 1.7221171065250303 0.95131286431213058 3.6252241560945917 1.0000000180025095e-35 2.5252546457461391 11.500000000000002 2.901052609853346 5.3448482182624204 24.500000000000004 1.5000000000000002 2.2803414440750882 1.0000000180025095e-35 3.3433977481255357 3.5000000000000004 1.0000000180025095e-35 3.5000000000000004 1.2368842851602115 2.2970596749005039 2552.5000000000005 3016.0000000000005 2676.0000000000005 20.500000000000004 1.3479888099339705 1.1108498226124188 11.500000000000002 1.3483066743280141 2850.5000000000005 1.0000000180025095e-35 10.500000000000002 2.8805613220538961 4101.5000000000009 1.5000000000000002 1.3483066743280141 1.9213075239024315 2022.5000000000002 1.0000000180025095e-35
decision_type=2 2 2 2 2 2 2 2 2 2 2 2 2 2 2 2 2 2 2 2 2 2 2 2 2 2 2 2 2 2 2 2 2 2 2 2 2 2 2 2 2 2 2 2 2 2 2 2 2 2 2 2 2 2 2 2 2 2 2 2 2 2 2 2 2 2 2 2 2 2 2 2 2 2 2 2 2 2 2 2 2 2 2 2 2 2 2 2 2 2 2 2 2 2 2 2 2 2 2 2 2 2 2 2 2 2 2 2 2 2 2 2 2 2 2 2 2 2 2 2 2 2 2 2 2 2
left_child=2 12 8 4 16 7 14 31 9 40 35 20 13 18 15 30 17 29 25 53 21 22 23 48 -22 34 49 28 37 -3 56 32 68 -34 92 55 -18 -7 54 -23 42 -42 80 -31 -10 78 -24 -48 -12 50 51 85 -46 58 99 -11 57 98 69 70 -28 62 120 -64 65 66 67 115 -4 84 -37 87 -20 83 -14 103 77 -77 79 -5 81 91 -83 -61 94 86 -21 88 90 122 -70 -1 124 96 105 -56 104 -98 -6 100 101 -39 -27 -36 118 -9 109 110 -109 111 -108 -72 -90 -57 -115 -43 117 -16 119 -44 121 -17 -89 -66 -2 -126
right_child=1 3 5 45 6 27 -8 19 44 10 11 -13 74 -15 116 61 36 -19 72 26 24 39 46 -25 -26 102 60 -29 -30 43 -32 -33 33 -35 75 59 -38 38 -40 -41 41 64 93 -45 52 -47 47 -49 -50 -51 -52 -53 -54 -55 95 113 -58 -59 -60 73 -62 -63 63 -65 123 -67 -68 -69 71 -71 106 -73 -74 -75 -76 76 -78 -79 -80 -81 -82 82 -84 -85 -86 -87 -88 89 112 -91 -92 -93 -94 -95 -96 -97 97 -99 -100 -101 -102 -103 -104 -105 -106 -107 107 108 -110 -111 -112 -113 -114 114 -116 -117 -118 -119 -120 -121 -122 -123 -124 -125 125 -127
leaf_value=-2.5058315778679536 -2.4479233944181131 -2.1802829881668186 -2.5493739592836548 -2.427055240584497 -2.4308637007628717 -2.4994815863021063 -2.508510205472124 -2.4411931595225953 -2.4051558299944489 -2.4422760350962034 -2.3463918455488573 -2.5278721357060361 -2.5391457061554834 -2.2574261182716944 -2.3641140101696871 -2.442581201697954 -2.2291641575990604 -2.435001889529461 -2.5748136018647014 -2.4256161838682093 -2.3375946734018815 -2.3130234377062924 -2.2710703315776355 -2.5736047523470713 -2.5159983253407177 -2.4738417794137724 -2.4517032679274209 -2.2969166486320307 -2.3261454588554096 -2.3881598852978119 -2.5048236167737978 -2.5498241337440333 -2.3118314447048016 -2.4768219318226361 -2.3768618070763496 -2.4902533118193455 -2.0719565307871397 -2.37415934217695 -2.5486501745068759 -2.1679039727235012 -2.5577421426007159 -2.4408818941948121 -2.4198609063657854 -2.2279237251054536 -2.2336445691477715 -2.3385072383012862 -2.3068712793208119 -2.407914059874682 -2.4415193591434425 -2.3244600156443029 -2.5319616571627503 -2.3342136209954396 -2.3846229931088003 -2.5397211399547821 -2.4853146628085847 -2.5742090061181422 -2.294441494825723 -2.5241516709335396 -2.5156311268960256 -2.3771588370286336 -2.5567400523025725 -2.2269222296450213 -2.255846446146287 -2.3905150037388743 -2.5304319280315974 -2.4991278478918129 -2.3302202184470087 -2.3358019684812432 -2.4936285284396775 -2.5299551843764054 -2.3163947245156247 -2.5607198839616232 -2.4624068142658686 -2.5480587495850977 -2.4491877020706396 -2.3942184121969783 -2.4645378651371499 -2.307090571783561 -2.3813964208325111 -2.5065566246574136 -2.415887223557458 -2.4624921333535768 -2.5761449176923894 -2.478424780096439 -2.3410171145408603 -2.4942908833931603 -2.3368589690278272 -2.4557641771189371 -2.4884027227041452 -2.3581886478333627 -2.457244723781876 -2.377923906268018 -2.5022716444837116 -2.4926063465691777 -2.3790589247202805 -2.378445339924343 -2.5157324446454994 -2.4075350169112122 -2.3430491195372083 -2.2968285500866163 -2.3174208796828726 -2.5027198573482723 -2.378445339924343 -2.4738295306027474 -2.4700890480208706 -2.5250526665679738 -2.4309323708457247 -2.439459295402358 -2.2249183674618216 -2.4645378651371499 -2.5237674302301243 -2.4363490398774355 -2.5694505386585069 -2.4261459114408717 -2.5254123800015869 -2.5334525014647964 -2.2196433821165495 -2.2487510226702452 -2.3505118316100533 -2.3407915385988667 -2.4452559157658902 -2.3215825584022447 -2.5480587495850977 -2.4462323675593192 -2.3225714732727814 -2.4406664986021118
leaf_weight=6.9040442705154401 25.19642835855484 17.699345618486404 18.776448220014572 22.831166803836823 13.890854597091673 24.079549968242645 14.700234502553938 17.5327782034874 11.763429611921309 30.595400303602219 23.097282260656357 10.678507953882216 18.264105200767521 14.372276186943052 15.176942944526672 7.3571869730949429 23.272240668535233 10.624020785093306 9.4018459022045153 56.011847943067551 8.332098990678789 16.151854962110523 23.637904167175293 7.2057943046092978 13.702792048454283 38.244911015033722 17.633361548185352 10.816796481609343 14.220883518457411 12.523035496473314 13.945341765880583 37.209763377904892 10.125817209482195 11.717333436012266 14.417337059974672 9.5851953029632551 11.02371162176132 10.770700305700307 6.6934512853622428 12.423487454652784 18.053512215614319 12.376355975866323 63.95943084359169 7.5866325497627249 13.859933167696001 10.569533616304396 20.320261031389236 22.286867052316666 20.145302623510361 13.429320901632307 7.8967735767364493 17.593013823032379 7.7417030632495871 18.538611650466919 16.594536066055301 8.166566878557207 7.6138761341571799 9.3746023178100568 21.979368567466736 9.1875750720500964 9.3012625575065595 9.0691744387149793 21.954195588827133 9.873841196298601 14.901401191949846 12.915942579507826 8.7805285453796369 7.5405363738536826 146.51356774568558 7.553640514612197 21.075153768062595 11.428687542676924 10.207547962665556 6.5561980605125418 13.199875324964522 19.642385900020599 7.3205170929431906 42.429527133703232 12.971465051174162 19.165677458047867 13.65301802754402 7.1832638680934933 13.931202322244642 17.18021884560585 6.2319175899028769 10.065581589937208 11.223843008279799 15.363970190286642 9.3793154656887072 9.155618339776991 66.333083391189575 7.4671966135501862 8.8622592985630018 9.8597017526626569 8.3960124552249891 6.607007384300231 10.852431058883669 10.903240382671354 20.516714572906494 7.6825027465820304 9.6773876547813398 11.232234001159666 6.607007384300231 9.6904917955398542 10.962440699338911 10.060868442058561 30.600113451480865 13.511051654815676 7.5180059373378745 7.3205170929431906 9.3059757053852064 7.014053910970687 22.271692305803299 7.6683633029460934 13.460242331027983 8.1712800264358503 15.758947879076002 11.306609064340591 21.202980697154999 9.1922882199287397 8.8350157141685468 18.078113257884979 6.5561980605125418 8.9036423265933973 12.637758284807207 17.464151591062546
leaf_count=93 319 154 266 282 172 323 199 220 141 385 258 148 256 141 173 92 220 132 137 692 91 172 238 105 187 499 224 112 154 147 188 527 107 153 167 127 77 124 95 105 258 155 785 70 131 116 215 269 253 145 110 193 90 260 219 119 78 129 300 106 133 84 216 116 207 173 95 82 1955 105 226 164 131 93 167 233 94 451 151 259 166 92 203 225 68 134 123 196 124 103 850 86 119 131 97 76 148 131 228 79 103 151 76 126 142 139 380 169 69 94 128 87 322 94 186 114 146 109 238 101 111 195 93 112 136 219
internal_value=-2.41841 -2.37158 -2.43893 -2.33861 -2.31899 -2.46199 -2.35313 -2.47249 -2.41498 -2.41984 -2.40148 -2.36314 -2.41444 -2.40303 -2.3408 -2.36216 -2.23919 -2.2899 -2.4131 -2.44228 -2.35256 -2.33894 -2.36332 -2.4158 -2.44521 -2.40316 -2.41782 -2.40948 -2.42195 -2.25122 -2.41247 -2.49195 -2.48531 -2.39661 -2.38792 -2.4362 -2.17242 -2.43769 -2.41675 -2.24436 -2.44499 -2.47344 -2.43123 -2.32124 -2.32301 -2.42367 -2.3247 -2.3574 -2.3889 -2.40181 -2.41299 -2.40294 -2.28267 -2.4816 -2.40233 -2.47644 -2.38813 -2.40718 -2.46638 -2.41919 -2.48844 -2.31966 -2.33476 -2.29443 -2.45248 -2.43121 -2.40849 -2.43646 -2.49189 -2.44525 -2.40626 -2.48804 -2.51694 -2.46238 -2.50128 -2.36273 -2.34627 -2.33316 -2.44184 -2.46234 -2.47201 -2.49524 -2.53623 -2.44049 -2.42986 -2.4199 -2.4093 -2.48492 -2.49029 -2.44436 -2.48209 -2.43565 -2.42582 -2.41695 -2.44797 -2.4518 -2.41135 -2.45941 -2.37621 -2.37483 -2.39746 -2.43717 -2.458 -2.4134 -2.40192 -2.47169 -2.39828 -2.41778 -2.35687 -2.36711 -2.45193 -2.34375 -2.54477 -2.51341 -2.48862 -2.47773 -2.27282 -2.3101 -2.39449 -2.40854 -2.37541 -2.35374 -2.48394 -2.49858 -2.41415 -2.3881
internal_weight=2018.14 613.677 1404.46 345.718 280.181 716.655 197.452 598.28 687.806 654.441 376.727 177.982 267.958 236.494 182.751 140.509 82.729 48.433 222.122 233.448 167.304 145.269 116.693 50.4484 22.0349 202.513 143.155 118.375 107.558 37.809 65.3414 364.831 327.622 21.8432 157.661 198.745 34.296 93.3374 69.2578 28.5753 277.714 91.6432 186.071 20.1097 33.3651 65.5378 66.245 42.6071 43.2426 116.22 102.791 94.8943 21.6016 90.2932 62.5644 59.8906 51.396 43.7822 71.7546 138.854 26.9346 75.1675 66.0984 31.828 73.5897 49.7846 36.8687 28.0882 305.779 49.7752 105.93 287.002 19.6094 32.924 31.464 93.5003 69.3924 62.0719 54.9683 41.9968 49.1387 35.4857 21.1145 26.3678 42.2216 77.3013 67.2357 275.573 244.498 31.0758 212.847 14.3712 64.1606 136.933 35.9897 23.2015 127.073 21.7557 34.4076 39.3628 31.6803 22.0029 44.8519 24.1078 105.317 27.5936 96.3449 60.9351 21.0291 35.4097 39.9061 28.0892 31.651 29.2952 21.1286 20.5476 42.2425 26.4836 94.3547 73.1517 34.2703 25.4353 21.9202 23.805 55.2983 30.1019
internal_count=24757 7115 17642 3844 3036 9239 2236 7803 8403 8041 4529 2041 3271 2848 2037 1609 800 503 2707 2943 1893 1615 1338 616 278 2439 1754 1436 1324 371 795 4860 4333 260 1864 2488 297 1170 847 277 3512 1196 2316 217 362 808 722 484 511 1397 1252 1142 221 1189 752 784 607 529 929 1704 357 814 730 332 938 619 446 351 4073 629 1280 3807 268 424 423 1071 778 684 692 541 640 474 295 331 524 949 815 3643 3251 392 2805 179 793 1676 456 295 1545 279 400 457 378 275 575 293 1266 359 1153 746 238 407 508 313 446 399 280 269 428 282 1124 886 398 287 289 319 674 355
is_linear=0
shrinkage=1


Tree=1
num_leaves=127
num_cat=0
split_feature=0 5 5 2 8 33 32 3 1 1 1 1 0 5 1 32 5 5 5 4 27 32 10 19 1 1 10 5 19 1 33 19 32 9 1 32 3 1 33 10 10 10 0 10 0 5 1 19 32 32 3 19 33 33 4 5 1 32 33 19 5 5 32 5 2 8 4 8 10 0 31 32 33 19 0 10 32 33 33 0 32 5 32 32 5 10 19 0 0 4 10 3 19 10 5 19 0 10 5 33 4 32 19 13 19 15 33 5 19 10 19 3 4 19 33 0 33 19 19 19 3 10 3 33 3 33
split_gain=512.683 394.526 272.905 221.443 166.754 158.163 130.659 115.879 109.048 395.34 217.992 123.397 108.829 97.9081 329.171 98.0855 93.6151 197.54 91.6977 85.2701 78.9294 78.8845 78.0518 75.3131 73.0908 69.312 67.1677 59.6887 55.5516 52.3276 62.015 51.8012 48.9938 48.9731 50.8741 46.7604 53.3819 46.384 46.2851 45.9572 44.5442 43.6349 42.695 40.4564 56.9616 39.2461 39.1743 38.3797 40.2714 72.0979 36.3079 36.2565 48.4987 35.6912 32.498 32.2383 31.6526 86.5201 31.2753 31.1761 31.1254 41.1797 30.8928 30.7463 30.0339 29.3939 28.777 26.6759 28.4342 25.9491 25.1836 24.9112 24.3354 24.2474 29.5492 32.3108 24.0073 37.0137 23.8815 39.2589 23.7411 23.5451 36.0037 27.9579 27.6575 23.3499 24.1277 23.2022 37.0591 23.1695 48.2141 42.3825 22.9549 21.9899 21.331 20.1212 19.9867 19.8735 19.3173 33.4272 19.3063 18.8384 18.5979 18.3328 19.5987 18.2952 17.9133 17.3695 22.1122 21.3106 16.6547 22.2846 18.2617 16.5345 15.9262 15.5872 15.0372 15.0945 14.7177 14.3913 14.1367 23.8365 14.6604 13.3536 12.7641 14.6664
threshold=2.4936185050838486 2.5000000000000004 5.5000000000000009 2022.5000000000002 1.0000000180025095e-35 6.3345652672368402 5.3926184102809716 3.5000000000000004 4.2045812236012674 4.37240336870095 3.5114340430413216 0.89587973461402759 1.7909254406777066 3.5000000000000004 3.6242520361853052 4.9311952580155696 1.5000000000000002 1.0000000180025095e-35 5.5000000000000009 4.5000000000000009 1.0000000180025095e-35 8.0942296882160409 13.500000000000002 10939.500000000002 2.8029010331479989 2.1383330595080281 8.5000000000000018 4.5000000000000009 10485.000000000002 2.524928003624769 3.6451404125060347 2.5000000000000004 3.0424794803376858 1.0000000180025095e-35 1.7005986908310777 6.4797973726342279 2.5000000000000004 3.6505739029280164 5.5195890223150146 24.500000000000004 21.500000000000004 30.500000000000004 2.8612204918231416 1.0000000180025095e-35 1.3479888099339705 3.5000000000000004 2.602003343538398 3244.0000000000005 2.0442330025821884 3.4502656876692575 2.5000000000000004 10306.500000000002 1.2368842851602115 3.6252241560945917 5.5000000000000009 2.5000000000000004 2.9700856263602158 5.132786836714426 5.5925650702683889 12.500000000000002 4.5000000000000009 3.5000000000000004 2.1874499231782885 4.5000000000000009 2022.5000000000002 1.0000000180025095e-35 7.5000000000000009 1.0000000180025095e-35 8.5000000000000018 1.9213075239024315 0.89587973461402759 1.921595379460509 0.47871579930198721 1.0000000180025095e-35 2.8612204918231416 22.500000000000004 2.1101370695099555 3.1179894410473969 2.2277527037369116 1.3479888099339705 2.2503883115913679 1.5000000000000002 2.0763100489950994 1.9198603418072457 1.0000000180025095e-35 12.500000000000002 272.50000000000006 1.3479888099339705 1.8710323538087952 5.5000000000000009 20.500000000000004 1.5000000000000002 5436.5000000000009 34.500000000000007 2.5000000000000004 1.0000000180025095e-35 1.9213075239024315 20.500000000000004 1.0000000180025095e-35 1.1148835100366556 5.5000000000000009 5.3150242136501546 6608.5000000000009 1.0000000180025095e-35 5.5000000000000009 1.0000000180025095e-35 2.0442330025821884 1.0000000180025095e-35 9348.5000000000018 6.5000000000000009 7981.5000000000009 1.5000000000000002 2.5000000000000004 10653.500000000002 2.2838129690726277 1.7621497893980695 2.413287242135548 5.5000000000000009 11846.500000000002 7205.5000000000009 2.5000000000000004 9.5000000000000018 1.5000000000000002 3.4853221926099685 1.5000000000000002 2.2503883115913679
decision_type=2 2 2 2 2 2 2 2 2 2 2 2 2 2 2 2 2 2 2 2 2 2 2 2 2 2 2 2 2 2 2 2 2 2 2 2 2 2 2 2 2 2 2 2 2 2 2 2 2 2 2 2 2 2 2 2 2 2 2 2 2 2 2 2 2 2 2 2 2 2 2 2 2 2 2 2 2 2 2 2 2 2 2 2 2 2 2 2 2 2 2 2 2 2 2 2 2 2 2 2 2 2 2 2 2 2 2 2 2 2 2 2 2 2 2 2 2 2 2 2 2 2 2 2 2 2
left_child=3 4 13 8 5 6 39 12 10 -10 11 19 33 14 23 27 17 -8 26 67 22 -19 56 58 41 69 46 53 32 85 -31 -7 116 34 60 -12 -37 43 -11 54 106 51 -4 44 -36 123 50 48 -41 114 55 52 -9 124 62 102 57 70 73 -58 61 72 -2 65 -18 98 -65 68 87 71 92 97 -5 89 75 -75 -45 -78 -27 -80 -6 83 -83 -56 -85 86 -22 -1 -89 90 91 -3 -13 -30 -71 96 -70 -24 99 -21 -61 -76 -14 104 -100 -17 -29 -54 -109 -110 112 -112 -74 -104 -50 -79 117 -28 -63 -39 121 122 -62 -34 -15 -126
right_child=1 2 42 7 80 31 16 24 9 38 35 20 18 15 -16 105 64 21 -20 63 29 -23 25 -25 -26 78 28 40 93 30 -32 -33 45 -35 37 36 -38 119 -40 47 -42 -43 -44 76 -46 -47 -48 -49 49 -51 -52 -53 107 -55 81 -57 59 -59 -60 100 120 118 -64 66 -66 -67 -68 -69 95 94 -72 -73 110 74 101 -77 77 115 79 -81 -82 82 -84 84 -86 -87 -88 88 -90 -91 -92 -93 -94 -95 -96 -97 -98 -99 103 -101 -102 -103 113 -105 -106 -107 -108 108 109 -111 111 -113 -114 -115 -116 -117 -118 -119 -120 -121 -122 -123 -124 -125 125 -127
leaf_value=0.01043272304174607 0.13741428908181011 -0.026913693417274287 0.16050273585170607 -0.035830451951465704 0.018446983134970819 0.13063093567413198 0.30088727488283673 0.024450945046636252 0.39530532210774122 0.14381759094454485 -0.047615273630895072 0.10639880781864791 0.065153841729543083 0.0050097060971706379 0.29105238580987181 -0.028620498487999569 0.34011678178279514 0.18276317579771165 0.20331788570024353 0.18293340165524785 0.10379895223290192 0.023308587037834977 0.19775824784336682 0.18789830519473674 -0.020487582273377755 0.30156211929804233 0.07046700506676723 0.14355903745720064 -0.00033964499452229872 0.18799943031286415 0.037724359518329677 -0.012838316613923909 0.23645189701625952 -0.024058748449769334 0.21901908552366212 0.15103024307157764 -0.029127227126700163 0.045980521560188281 -0.012581868607138358 0.082884750520489603 0.23992698577408089 0.18636818772943198 0.31569434415201725 -0.02472010933804945 0.063514862940006453 0.070287486030346055 -0.038958980558396583 0.24183835055981931 0.26708267074754977 0.077932373115370546 0.0028949332018411958 0.18608118141929703 0.16712952214296403 0.16007674626056068 0.2143187125559034 0.032952728594407565 -0.0054346293145458996 0.25857080494145146 -0.016504324255414187 0.15444429493282172 -0.0020690374503740463 -0.024659514543267605 0.047001847345391784 0.063693291176186675 0.22202402612934447 0.027482640858876757 0.17345651719409094 -0.035084425354596473 -0.010661181694529984 0.21728783008413577 0.19599715981081076 0.053897178092897471 0.082622756222546542 -0.039999846818124213 0.096776850097210765 0.077924291318818936 0.14054715032529544 0.066131855728938649 0.25831934273689072 0.10880910215644626 0.10748942752758206 0.11366767791857056 0.24508746884080934 0.15391451347684226 0.05563979152410873 -0.01672577689369243 0.0053303214602839124 0.13252157397523198 0.032833238826071656 0.064366132561502268 0.1815502637902667 0.13961696915688135 0.013112605310042841 0.10288690671547195 0.12466074067766393 -0.030107355610324522 0.08874264849909802 0.093727653358301563 0.092709262073803811 0.078819900600775927 0.037102334065816048 0.014274738579977601 0.19493946372941509 0.15888995664376304 0.052197511324361658 0.040194973852273976 0.038258300589603111 0.11720243832186526 -0.00095077444580838092 0.10285030672487239 -0.050047511997162675 0.030559815502336402 0.035068057713560662 0.079122244680436077 0.16249133378396446 -0.026526757370188354 0.011828194319306989 0.13267692307257056 0.043403214699883008 -0.049410528105878135 0.016567158969922585 0.15531405242873431 0.093183500328024138 0.14220234038320709 0.037251280284668141 0.093340316503826001
leaf_weight=13.350095495581625 25.348942004144192 7.4331686794757861 10.233868859708311 11.597217492759226 19.138683035969738 11.032148860394956 23.366086669266224 24.39824815094471 12.870018385350702 6.6892398074269321 31.573355413973331 115.98907618969679 18.824429288506508 17.532343164086342 20.459728091955185 35.102118618786335 24.11860353499651 15.902900382876398 12.577548965811728 15.18127331882715 14.097152628004553 15.49245649576187 9.3481509089469927 14.11995133012533 11.190143913030623 10.442549757659437 39.196493744850159 8.4839312359690719 19.955012887716297 15.564191155135633 13.039936460554598 13.299950465559958 11.675296291708948 36.431364111602306 11.814680121839048 7.2990637049078932 8.1833822354674322 6.6643697768449774 13.198310673236845 13.718103036284445 7.9325098842382422 17.130549103021622 13.368003770709036 6.9287334308028212 13.093949966132639 10.908764153718947 14.048802383244036 29.902236424386501 17.646903775632385 11.579435057938097 30.706053227186203 10.545883119106291 11.512204550206659 6.9653717577457419 8.7467216625809652 34.049701996147633 11.174606621265413 10.25796966999769 9.9617728218436223 8.0129347145557386 7.1042993515729922 54.937022611498833 17.048648506402969 10.076699525117876 14.21408251672983 21.235064849257469 21.261514447629452 10.885077387094496 8.5964811146259326 15.786787860095499 7.9985682442784301 15.882474340498446 29.303170576691628 14.611098282039167 28.739783503115177 8.909893721342085 12.263538934290411 9.8786023557186144 10.254648081958296 10.387878842651842 12.669361032545565 10.075472332537176 17.805949449539185 15.649348460137844 15.624409154057503 14.631911836564539 11.526491016149519 21.311310507357121 17.878539331257343 35.214590042829514 17.489229172468185 6.8470273613929749 7.5427246168255797 6.3257410004734984 17.293818220496178 15.902284808456896 10.710560858249663 13.902101188898085 87.234618723392487 19.481923550367355 7.3623772710561743 9.9068623259663564 8.0605934262275678 7.8320753946900359 52.674320608377457 12.655192442238329 9.1581597551703435 36.596868067979813 10.227555431425573 8.5744453668594343 10.35449233651161 39.260998129844666 74.89064297825098 7.5328541845083228 10.134669214487074 7.4050876572728148 7.7208629921078673 15.617070339620112 8.6719619408249837 8.2346008867025358 9.6726953610777837 8.8358440697193128 7.9778643250465393 13.023555338382719 41.9747683852911 17.497480258345604
leaf_count=173 266 96 99 170 250 122 162 320 71 68 423 1268 223 219 140 445 147 138 123 148 157 178 84 131 149 74 448 87 263 141 155 176 94 527 105 75 110 80 173 148 62 150 97 95 155 119 203 234 132 124 412 89 113 68 79 421 142 84 132 80 97 761 205 118 114 263 212 147 117 138 67 177 355 192 303 94 135 120 76 110 139 106 143 150 174 185 145 230 220 388 156 71 96 73 172 217 127 159 976 223 91 114 83 75 636 144 109 384 133 98 154 504 959 87 97 101 102 164 108 115 128 96 95 128 495 189
internal_value=0.0924242 0.127944 0.090664 0.0759752 0.166307 0.177496 0.187917 0.0567305 0.0951956 0.184825 0.0909783 0.0982392 0.047683 0.0786245 0.10459 0.0496175 0.237747 0.191483 0.073254 0.0762785 0.119568 0.106147 0.13181 0.0787306 0.0997432 0.166719 0.0658949 0.075605 0.091313 0.0704592 0.121833 0.0529269 0.108592 0.0305205 0.0364588 -0.0126632 0.0569357 0.0724153 0.0415248 0.163288 0.142377 0.111214 0.253751 0.0915004 0.140723 0.156029 0.0375517 0.192942 0.163116 0.189311 0.0486817 0.0975794 0.0862367 0.0543684 0.140073 0.0688286 0.10987 0.119421 0.0669095 0.0570441 0.0258392 0.0190648 0.102379 0.0926948 0.300136 0.0849871 0.140188 0.0367481 0.045977 0.137492 0.107517 0.106235 0.0322147 0.0734979 0.0498201 0.00473826 0.0560337 0.0755657 0.23089 0.188144 0.0554921 0.162469 0.200964 0.133131 0.106937 0.0325399 0.061028 0.0691628 0.0884079 0.094719 0.12638 0.053941 0.1009 0.0254038 0.171888 0.0104747 0.0445738 0.139469 0.0915062 0.126797 0.102139 0.0764635 0.102911 0.0827252 0.077804 -0.00984675 0.0922843 0.108195 0.0942945 0.0470475 0.0375419 0.0131067 0.0489162 0.144119 0.233006 0.0259597 0.0803195 0.0895017 -0.0148802 -0.0056601 0.0706288 0.0910906 0.0487264 0.191158 0.0436421 0.0546441
internal_weight=2206.75 697.112 354.597 1509.64 342.515 310.707 286.375 755.72 753.922 32.7576 721.164 674.108 625.544 330.995 173.693 157.302 93.0941 54.7614 250.223 333.612 340.496 31.3954 271.637 153.233 130.176 103.298 237.645 109.545 124.423 68.8597 28.6041 24.3321 98.142 375.321 338.89 47.0558 15.4824 76.2836 19.8876 193.281 25.5746 118.986 23.6019 61.3846 24.9086 35.6076 113.222 82.9813 53.0791 39.361 99.1736 101.855 91.3093 83.97 110.299 68.4676 168.338 141.788 139.113 26.5499 262.606 229.016 42.3976 234.977 38.3327 203.639 31.3382 98.6343 87.7493 72.2133 131.53 39.1327 165.407 129.152 62.1676 23.521 36.476 29.5472 31.0851 20.6425 31.808 67.9019 27.8814 40.0205 31.2738 40.2556 25.6236 52.5399 39.1898 66.984 31.7694 14.2802 123.532 26.2808 33.0806 35.2093 19.307 23.2503 182.404 34.6632 15.3753 38.6466 34.4179 147.741 139.909 47.7573 17.6421 66.9111 55.3989 18.802 153.809 49.6155 104.194 15.5934 27.7816 17.2837 62.5344 54.8136 63.609 14.899 33.5907 23.918 15.0822 24.6989 77.0046 59.4722
internal_count=24757 7115 3831 17642 3284 2895 2597 9239 8403 312 8091 7483 7803 3635 1817 1818 739 478 2943 3882 3601 316 2818 1677 1436 990 2820 1229 1391 783 296 298 1055 4860 4333 608 185 906 241 1858 258 1287 196 711 260 341 1429 735 501 353 1226 1137 1048 971 1123 814 1828 1515 1546 313 3427 3011 471 2651 261 2321 330 1231 1084 730 1431 420 2142 1414 703 286 451 356 260 186 389 652 249 403 324 487 302 623 450 711 323 167 1364 336 310 461 244 243 2058 371 171 417 393 1687 1612 589 196 728 615 231 1972 658 1314 170 229 221 714 612 869 195 416 288 192 222 903 684
is_linear=0
shrinkage=0.05


Tree=2
num_leaves=127
num_cat=0
split_feature=0 5 5 2 8 1 1 1 5 1 4 2 1 1 9 32 0 0 5 0 30 8 1 0 8 32 0 4 4 5 5 1 32 5 9 1 1 5 5 0 1 3 3 5 4 19 1 27 0 32 19 32 0 32 19 2 32 5 1 32 19 32 32 5 32 19 32 1 0 19 4 4 32 32 32 32 2 19 19 5 19 1 32 2 32 19 0 3 1 4 19 19 3 4 1 19 4 19 32 1 5 0 32 5 5 19 19 19 2 19 5 15 19 0 0 4 2 4 0 0 32 32 32 19 5 19
split_gain=364.291 263.806 192.599 138.717 126.266 117.363 221.784 143.383 97.8424 94.9661 83.5027 235.252 80.6512 124.34 97.8391 76.4887 91.3087 75.3404 83.7142 81.808 65.5679 61.9391 60.6839 60.3252 58.3944 52.2183 52.0944 51.8496 51.0596 49.834 68.1224 56.1336 52.8484 44.9109 44.6956 39.9407 40.9609 39.9333 50.2495 39.4265 49.6777 42.2674 40.0816 37.1805 35.2327 33.5304 32.6727 40.3644 32.0645 31.9031 30.6659 30.1756 28.305 27.7403 27.4376 25.9391 25.7756 25.5244 24.6137 43.9177 24.2566 24.9674 23.9377 23.7793 22.9523 22.5935 22.2804 21.5772 21.129 20.7347 20.632 20.0784 19.7507 43.0799 20.9557 18.8515 32.0851 28.7553 25.8225 34.6495 29.2383 15.1041 22.3514 14.95 26.2606 39.9351 14.7173 14.6862 14.6854 14.0341 13.784 13.3157 20.0417 15.1187 12.7572 12.1165 11.7088 11.3186 11.2777 10.6333 10.1036 9.74097 9.55703 11.083 12.7903 12.7643 9.25139 9.22315 8.95836 7.81377 7.46894 7.46414 7.33643 7.10448 7.84848 6.75561 6.7052 6.61614 5.83703 5.80308 5.78558 5.64165 5.57669 5.41775 5.23792 5.07681
threshold=2.3144311491224401 2.5000000000000004 5.5000000000000009 2022.5000000000002 1.0000000180025095e-35 4.2549835731622503 4.37240336870095 3.4811217321331038 1.5000000000000002 2.740319461670996 10.500000000000002 2023.5000000000002 4.2549835731622503 3.9415346756528771 1.0000000180025095e-35 2.0763100489950994 3.285767075415277 2.7434121687492317 1.0000000180025095e-35 3.285767075415277 0.89587973461402759 1.0000000180025095e-35 2.0126758453675748 1.7909254406777066 1.0000000180025095e-35 6.2333935372518114 3.227006005304085 10.500000000000002 7.5000000000000009 4.5000000000000009 3.5000000000000004 3.6242520361853052 2.0442330025821884 5.5000000000000009 1.0000000180025095e-35 1.7005986908310777 3.6505739029280164 5.5000000000000009 2.5000000000000004 1.562337514734687 2.524928003624769 1.5000000000000002 2.5000000000000004 4.5000000000000009 2.5000000000000004 2676.0000000000005 0.89587973461402759 1.0000000180025095e-35 2.8026068289618116 8.0942296882160409 2676.0000000000005 2.2503883115913679 2.8612204918231416 3.2576821557712896 390.50000000000006 2021.5000000000002 1.3424366481084753 2.5000000000000004 2.9700856263602158 3.7898563755707571 3.5000000000000004 0.96003850900977128 4.5941633318452499 3.5000000000000004 0.47871579930198721 2612.5000000000005 2.8805613220538961 1.7005986908310777 1.7621497893980695 110.50000000000001 5.5000000000000009 10.500000000000002 5.2544179591945595 6.9829829890418535 3.8600643041260372 6.6889454879583168 2023.5000000000002 12413.500000000002 1.5000000000000002 3.5000000000000004 8090.5000000000009 0.89587973461402759 4.3332807463249461 2023.5000000000002 1.7158892572701974 958.50000000000011 1.9213075239024315 2.5000000000000004 2.1383330595080281 4.5000000000000009 7048.5000000000009 7981.5000000000009 1.5000000000000002 2.5000000000000004 1.8688348091416842 4.5000000000000009 8.5000000000000018 9630.5000000000018 3.934069419084246 3.4175922930736511 1.0000000180025095e-35 1.6064329003999946 3.4836992479892435 1.5000000000000002 2.5000000000000004 1.0000000180025095e-35 1.5000000000000002 6.5000000000000009 2022.5000000000002 1359.5000000000002 3.5000000000000004 1.0000000180025095e-35 3135.5000000000005 1.6064329003999946 1.6946973347715024 5.5000000000000009 2021.5000000000002 4.5000000000000009 2.8612204918231416 0.91428672117538579 2.4096190841746044 1.519310686030378 2.1469362068531148 5659.5000000000009 3.5000000000000004 390.50000000000006
decision_type=2 2 2 2 2 2 2 2 2 2 2 2 2 2 2 2 2 2 2 2 2 2 2 2 2 2 2 2 2 2 2 2 2 2 2 2 2 2 2 2 2 2 2 2 2 2 2 2 2 2 2 2 2 2 2 2 2 2 2 2 2 2 2 2 2 2 2 2 2 2 2 2 2 2 2 2 2 2 2 2 2 2 2 2 2 2 2 2 2 2 2 2 2 2 2 2 2 2 2 2 2 2 2 2 2 2 2 2 2 2 2 2 2 2 2 2 2 2 2 2 2 2 2 2 2 2
left_child=3 4 12 5 8 7 -7 9 17 20 23 68 13 14 21 106 72 25 22 49 24 27 48 34 37 28 87 29 83 30 31 -3 -31 75 35 43 39 38 46 40 41 -37 -42 63 -11 116 71 -48 -19 55 58 65 -4 66 -39 -20 -26 -41 -46 -60 101 -62 -9 64 -5 100 -40 -21 95 -32 -64 -1 74 -74 -17 76 78 102 110 80 -80 -16 -83 84 -2 -86 -55 125 -18 -85 -38 93 -93 -66 107 -12 115 113 -59 -75 -6 -45 103 105 -105 -78 108 -36 -10 -72 -25 -29 -27 119 -115 -57 -30 -99 -84 -65 124 -97 -50 -108 -70 -23
right_child=1 2 52 10 51 6 -8 62 15 44 11 -13 -14 -15 81 16 88 18 19 67 -22 26 -24 33 56 112 -28 111 45 32 69 -33 -34 -35 94 36 90 54 53 57 42 -43 -44 60 50 -47 47 -49 122 -51 -52 -53 -54 86 -56 96 -58 98 59 -61 61 -63 70 97 91 -67 -68 -69 120 -71 109 -73 73 99 -76 -77 77 -79 79 -81 -82 82 118 89 85 -87 -88 -89 -90 -91 -92 92 -94 -95 -96 121 -98 117 -100 -101 -102 -103 -104 104 -106 -107 123 -109 -110 -111 -112 -113 -114 114 -116 -117 -118 -119 -120 -121 -122 -123 -124 -125 -126 -127
leaf_value=0.06040848525934063 0.019494583767687333 0.076907257820576308 0.13966164680919055 -0.036483384925729737 0.026389947807572135 0.32132922885927684 0.034564783557896252 -0.044875275758046423 0.10502513266103318 0.21714580935413902 -0.0017093169994186659 0.33597654608042837 -0.041131806415924357 0.22010178641449152 -0.051118392297559635 0.19064272174708335 0.040114542781993529 0.065941068776298947 0.074806249749076542 0.075189255495164545 0.1676022375807189 0.0038870585747725474 0.2371129276079541 -0.032059323908028819 0.046034669048086008 0.034332838362212126 0.13216354253935425 0.10649302325506022 0.058631282078875448 0.19213657915932733 0.014760382204595822 0.18370931408237678 0.070364172621146512 0.16858159655916444 -0.025719932909713829 0.13286712001909956 0.042502978637137784 0.17031372264080252 0.056899406130755642 0.086968716997443102 0.088951458782253023 -0.0077341867242886296 0.23540687910217148 -0.010862990875015192 0.20410115824114536 0.20035222579211071 0.12911825149340048 0.049057218067257956 0.19333507352560542 0.044169690883754144 0.034263499710882543 0.099342170797708018 0.23365859369196032 -0.050009226258703056 0.051701176469686985 0.14898985135383699 -0.040417463387819492 0.032745613827611597 0.16111837817337987 0.025692668024155863 0.16337734154631534 0.050684247269439819 0.08734543801161318 0.0024451025667774897 0.072721854994841115 0.068348404053342651 0.1275734760823132 -0.023669830023688995 0.091444218448560821 0.059776639887452548 0.020973524636880486 0.11366914296684516 0.28322228668928695 0.15047101110420327 0.10486620172131914 0.1174085273127943 0.1730935628353058 0.001803758220047385 0.12738322834438798 -0.020088813820508887 0.014628313949321771 0.079556916428111329 -0.029492643855433393 0.065313914748743235 0.055242811615801302 0.19083271744112562 0.035457267209483431 -0.034524874625574048 0.12492693352146111 -0.026334283960952644 -0.049370373847315997 -0.04970420705483565 0.026895734273670348 0.031112891936375054 -0.0444602842215229 0.077470135777964577 0.11133384727911783 -0.004645748612875574 -0.04950235535585943 0.22770124923055898 -0.050500025449997411 0.061341896259160617 0.034429643581558318 0.025251055707902009 0.092588678116835466 0.081856507709604953 0.15614353024297606 0.048703446749053907 0.035343867021868473 -0.048341948181061273 0.023122194289659028 0.15239335688629255 -0.025250178890392938 0.034758381371792581 -0.020818296346857661 0.21354279189657072 0.12213887385102713 0.055844273793695602 0.025332726504583188 -0.051778071389693682 0.12294204928623412 0.0173109307331831 0.1317778743047345 0.092719611941204871 0.040115414483742659 0.057177514309996881
leaf_weight=96.267641425132751 11.585075840353964 156.19180297106504 24.940370559692383 12.082368798553942 6.2259396538138452 13.518928252160551 13.50081070512533 22.909649074077606 12.828199163079264 13.138637766242026 13.662125177681444 8.5577311813831312 15.533782504498957 13.630396112799643 11.744753003120421 52.577987685799599 10.731275811791422 12.703943632543085 13.161770470440386 9.0970840752124804 18.521813161671162 11.802707590162756 29.026099056005478 16.879041455686092 18.964627169072628 15.46377267688513 8.0736717432737333 35.636275462806225 8.9309282377362269 17.403639897704124 60.654887922108173 13.499739743769167 20.724877595901489 9.81579641997814 7.2574372440576544 8.9872934296727198 6.9076460227370253 18.376155413687233 205.23812060058117 12.067831143736841 10.624826394021511 11.700585700571535 10.485410004854202 8.5886791571974772 11.112816177308558 16.129721529781818 76.290413573384285 21.72292497754097 16.571304589509964 10.306118115782736 9.5081206262111646 16.757565081119537 17.208097323775291 8.2565528228878993 7.9031427949666968 22.012918621301651 14.890907771885393 7.7439901456236822 15.043351374566557 10.573976181447504 10.098994977772238 11.376393511891363 8.2644320353865641 5.9839147552847889 31.54047529399395 11.116005145013331 12.121815286576746 12.274778954684733 16.45565810054541 45.888174377381802 8.9947067648172361 23.677174918353558 22.942974828183651 20.907157264649868 11.709242798388003 12.908065624535082 8.8592971339821833 12.310679443180559 15.068976849317552 10.947187475860117 9.8583693876862508 8.78567733615637 15.302217945456507 8.4334337860345823 14.018349878489973 9.6017795801162702 11.346997044980524 19.251405775547028 12.314152471721171 7.1690889298915854 8.4803761169314367 9.919185742735861 45.301785551011562 82.351812519133091 22.804541513323784 12.944891110062601 14.379615500569342 7.5301917046308544 7.8020837903022766 12.595119997858999 10.700463339686392 8.7593354284763318 9.550495043396948 10.70965053886175 29.590978667140007 11.237182125449179 12.948255278170111 8.2254244014620763 9.4184230715036374 6.4784590750932685 8.7415442094206828 23.369692228734493 6.9299896955490103 9.578178249299528 16.678759641945362 14.641120083630083 17.50171659886837 9.2220236584544164 6.3001129850745192 17.855152115225792 11.481915220618246 7.0074620097875586 16.537931092083454 11.525898791849611 10.765595510601996 7.5203005447983733
leaf_count=1062 137 1585 218 180 79 40 158 320 125 90 169 44 195 94 155 372 108 122 125 93 133 145 164 207 226 172 79 337 92 140 706 80 213 80 106 90 80 162 2250 132 105 144 78 111 80 124 707 239 117 109 100 167 97 104 85 179 191 93 120 113 101 134 80 84 357 130 105 154 159 507 106 232 115 148 108 132 81 159 143 137 115 90 199 92 144 76 122 248 112 87 123 154 561 1019 342 138 122 108 102 75 148 101 111 125 320 121 117 110 102 89 102 198 88 124 230 102 160 108 78 257 109 79 138 110 114 87
internal_value=0.081262 0.103217 0.0782835 0.0637193 0.128581 0.0798401 0.18182 0.0753699 0.136142 0.0820073 0.047299 0.094943 0.0692939 0.0729701 0.0683651 0.164443 0.182863 0.117016 0.138424 0.106073 0.0751372 0.0756452 0.17869 0.0405119 0.0716237 0.0848572 0.0206289 0.0824419 0.101261 0.0740215 0.0662845 0.0860067 0.128103 0.0659591 0.0300737 0.0353862 0.0655952 0.0760889 0.0724005 0.0818713 0.112459 0.0543324 0.166153 0.0263055 0.142351 0.141968 0.0899212 0.111865 0.139191 0.130709 0.118681 0.047135 0.180679 0.0560665 0.136834 0.143922 0.00753841 0.0338619 0.139377 0.107356 0.071658 0.106873 -0.0086579 0.0190167 0.0284143 0.0142178 0.0611934 0.0184813 0.0641031 0.0344777 0.025882 0.0714749 0.200456 0.226051 0.176181 0.0589179 0.0531731 0.0736371 0.0251845 0.0523661 0.0845449 -0.00389316 0.0144055 0.0658165 0.0838919 0.113796 -0.000141582 -0.00372399 0.087761 0.0227615 -0.00714485 0.0332332 0.0125446 0.0430344 -0.0209008 0.0336318 0.160557 -0.00625494 -0.00785352 0.182868 -0.0214116 0.0254513 0.0859642 0.0935174 0.0755905 0.126031 0.106103 0.0131664 0.0776094 -0.00771386 -0.0125754 0.126052 0.0150903 -0.0183191 0 0.177705 0.102725 0.0284377 -0.0126133 -0.0377804 0.0894188 0.0580148 0.165452 0.129329 0.0727752 0.0263029
internal_weight=2379.17 1055.24 533.463 1323.93 521.775 666.622 27.0197 639.602 476.975 592.955 657.307 80.8754 491.314 475.78 462.15 190.499 143.778 286.477 170.713 95.8734 533.578 420.017 74.8393 576.432 515.056 115.764 46.6481 373.369 93.3701 314.363 276.235 169.692 38.1285 166.477 409.955 371.667 84.8 481.201 454.922 69.412 41.7981 20.6879 21.1102 286.867 59.3769 42.5624 217.958 98.0133 45.8132 74.5015 46.2383 44.8 42.1485 236.963 26.2793 64.1954 33.8555 27.6139 36.7301 25.6173 38.8234 21.4754 46.6472 248.044 181.196 28.0424 217.36 21.3719 72.3176 106.543 23.7376 119.945 120.732 56.4453 64.2872 156.661 143.753 82.2583 61.4951 35.8745 24.9273 42.1328 30.388 50.8077 35.2052 23.6201 19.6035 38.5744 23.0454 15.6025 15.388 169.113 55.221 113.892 38.2874 33.6145 51.0337 66.8482 15.5461 33.5023 16.9264 17.348 69.9476 60.3971 40.3006 20.0965 46.7208 15.4829 22.2466 15.4732 25.6206 59.006 22.3938 50.096 26.2569 36.654 26.4326 16.7522 21.6023 23.8391 38.7032 19.9524 33.1092 24.4742 27.2213 19.323
internal_count=24757 10064 5451 14693 4613 6914 198 6716 4089 6121 7779 812 5136 4941 4847 1492 1038 2597 1425 884 5618 4325 541 6967 5485 1172 559 3766 912 3231 2878 1665 353 1833 5134 4576 947 5068 4821 744 417 234 183 3629 503 376 2240 946 377 637 413 524 315 2581 247 528 417 327 313 233 447 235 595 3182 2271 357 2355 247 768 1213 275 1294 818 338 480 1753 1621 917 704 395 258 522 367 536 357 220 226 480 220 179 203 2091 715 1376 558 386 403 911 195 223 227 212 758 647 445 202 454 216 227 195 309 535 260 695 354 281 252 216 277 341 382 217 255 227 273 232
is_linear=0
shrinkage=0.05


Tree=3
num_leaves=115
num_cat=0
split_feature=0 33 9 1 2 20 1 22 33 1 1 20 4 2 20 31 0 4 2 1 1 9 32 16 32 33 1 2 32 4 20 20 20 1 20 4 1 1 15 32 1 4 33 26 19 19 1 30 19 33 19 19 19 32 20 33 33 32 0 2 1 32 0 19 33 19 33 33 19 20 33 19 32 2 19 4 19 32 19 15 0 19 30 32 32 32 19 15 4 4 19 19 33 33 19 32 4 1 32 19 4 18 20 4 32 0 32 4 19 20 33 4 0 19
split_gain=269.985 145.452 113.126 143.934 106.826 96.3949 100.825 85.8339 166.681 81.7808 153.735 81.2207 65.051 144.243 65.0443 62.0136 60.1205 57.4505 51.4308 50.8288 94.8246 48.8969 51.6346 45.8614 45.1207 33.1412 45.0327 32.2051 31.7151 28.4381 27.9882 33.5716 29.243 34.2759 26.8723 33.825 26.7594 51.0604 26.4042 32.3902 25.4991 24.3415 41.8902 31.5196 24.005 30.9247 22.6936 22.6624 21.8715 21.8242 21.2429 39.0088 36.8413 24.9345 20.469 20.4576 20.3357 19.8608 19.3735 17.2186 17.0006 28.8045 16.3777 16.3313 16.1365 16.0904 15.734 15.7222 15.4671 15.2216 15.0426 13.6881 12.5773 11.101 10.7861 13.9944 10.251 9.63403 9.2132 9.0108 8.34258 8.33027 7.51961 7.45354 7.67483 7.29985 17.0724 11.2015 7.13929 25.225 8.42932 6.70745 6.43454 6.11343 4.64719 21.0527 19.0967 3.96987 3.95273 3.82949 3.80458 3.48159 3.19323 3.04402 2.78439 2.67973 1.39766 0.838226 0.715627 0.644357 0.816195 0.629799 0.612456 0.502757
threshold=2.3144311491224401 9.1883266636904999 1.0000000180025095e-35 4.033888097889446 2022.5000000000002 4.1820210059610323 3.4811217321331038 1.0000000180025095e-35 6.1483909005701882 3.6242520361853052 3.6762205501217919 3.4175922930736511 10.500000000000002 2023.5000000000002 3.0201273556387074 0.89587973461402759 3.0409439026694565 9.5000000000000018 2021.5000000000002 3.7726948748059121 4.2549835731622503 1.0000000180025095e-35 1.2042314545796711 1.0000000180025095e-35 7.5521455227058771 2.2838129690726277 1.8688348091416842 2022.5000000000002 2.8131801218028625 3.5000000000000004 3.9596780953303088 2.6735537653587347 2.9174053685313028 3.6242520361853052 1.7005986908310777 4.5000000000000009 3.2769667020129059 2.740319461670996 1.0000000180025095e-35 1.9629462255125694 3.2384861814448418 4.5000000000000009 3.7230042092383773 1.0000000180025095e-35 1.0000000180025095e-35 1416.5000000000002 2.9174053685313028 1.0000000180025095e-35 4650.5000000000009 3.7133239739419461 7324.5000000000009 11632.500000000002 12982.500000000002 2.9702099469207313 3.0677824455408698 2.2838129690726277 2.0442330025821884 2.2838129690726277 1.3479888099339705 2021.5000000000002 2.249904835165133 7.8106314378933135 1.7621497893980695 1359.5000000000002 0.47871579930198721 4429.0000000000009 3.6451404125060347 3.4411241905879164 10485.000000000002 2.8029010331479989 0.96003850900977128 6777.0000000000009 2.1101370695099555 2022.5000000000002 2.5000000000000004 2.5000000000000004 4.5000000000000009 3.6451404125060347 7101.5000000000009 1.0000000180025095e-35 1.6064329003999946 3981.5000000000005 1.0000000180025095e-35 7.1448522466840982 8.3622513341290805 2.0333675598035383 3075.5000000000005 1.0000000180025095e-35 3.5000000000000004 5.5000000000000009 6.5000000000000009 12413.500000000002 0.95131286431213058 2.6923659689771453 9574.5000000000018 0.95656407977734281 5.5000000000000009 2.3502401828962087 2.2803414440750882 10094.000000000002 5.5000000000000009 1.0000000180025095e-35 0.89587973461402759 3.5000000000000004 1.24137491979883 1.3479888099339705 6.1815300588369029 7.5000000000000009 8210.5000000000018 4.1190041246092024 6.4573603618477575 9.5000000000000018 2.4240189650750161 8657.5000000000018
decision_type=2 2 2 2 2 2 2 2 2 2 2 2 2 2 2 2 2 2 2 2 2 2 2 2 2 2 2 2 2 2 2 2 2 2 2 2 2 2 2 2 2 2 2 2 2 2 2 2 2 2 2 2 2 2 2 2 2 2 2 2 2 2 2 2 2 2 2 2 2 2 2 2 2 2 2 2 2 2 2 2 2 2 2 2 2 2 2 2 2 2 2 2 2 2 2 2 2 2 2 2 2 2 2 2 2 2 2 2 2 2 2 2 2 2
left_child=4 2 7 25 5 6 11 9 16 17 -11 15 21 62 24 36 59 18 28 -12 -21 22 64 27 -8 101 67 29 47 56 31 49 -33 40 35 78 37 41 57 -40 -34 43 65 58 55 -46 66 63 -31 50 53 68 -53 71 69 -30 -20 -29 -1 -9 -18 -62 76 72 103 -43 82 -27 -52 -39 74 -24 -2 -3 75 -66 105 -55 -23 106 -72 -10 85 -28 -85 86 -19 -87 -82 -90 -91 94 100 -45 96 -96 -76 -51 104 -78 -77 112 -37 -6 -64 -14 -61 -36 -105 110 -16 -44 -4 -75
right_child=1 73 3 -5 12 -7 14 8 81 10 19 -13 13 -15 109 -17 60 46 23 20 -22 34 30 -25 -26 26 83 38 44 48 -32 32 33 -35 107 102 -38 54 39 -41 -42 42 111 93 45 -47 -48 -49 -50 97 51 52 -54 77 -56 -57 -58 -59 -60 79 61 -63 98 -65 70 -67 -68 -69 -70 -71 80 -73 -74 113 91 92 99 -79 -80 -81 88 -83 -84 84 -86 87 -88 -89 89 90 -92 -93 -94 -95 95 -97 -98 -99 -100 -101 -102 -103 -104 108 -106 -107 -108 -109 -110 -111 -112 -113 -114 -115
leaf_value=0.0071454008417700943 0.042933382495691036 0.018011404838914447 -0.02338635106563626 0.18418539641964915 0.0022589294233087793 0.16649811492604466 -0.00013132301137003304 0.22995099523059445 -0.050427599203147544 0.27124217967398584 0.010446881261858667 0.21201435824227338 -0.024183447370332317 0.24899611899450669 -0.052134739932689515 0.15051026116174693 0.068539852329838433 0.081124544016556541 0.10338962094385307 0.19323755556369593 0.015754312701862724 0.034447030119712486 0.050336354443567655 0.18421202500969794 0.1510601989330724 0.1168694339444013 -0.05006749667223475 0.074808865507805758 0.16651087469703207 0.12888675812657951 -0.031806773359869971 0.16383827022714112 0.070856806834966937 0.1263971456603365 -0.051647916077959433 -0.049174974464695653 -0.015165287485751076 0.10149142970958012 0.056328119879913756 0.11012616767551689 -0.049879964823173702 0.079069752963940754 -0.00070249929570747141 0.071867950124059637 -0.018834411950894175 0.1073934749079558 0.044730129471423824 0.10501554163181222 0.071369238256147591 0.015837150453123762 0.026311088014170717 0.096383880380827056 0.002305705962934178 0.1407826496370207 0.070691687175815116 0.074149353309426597 0.033416209617808335 0.039315453076421522 0.049335016601619909 0.15384976985744048 0.17902301706690893 0.066495615060020483 0.084588791235992333 -0.034062840311986982 0.065287321598111889 0.05016682382994208 0.16442963659355436 0.025948752221595907 -0.022631673741375903 0.18671959068878297 -0.036132763367704768 0.10815124473978899 -0.011344487247525372 -0.051283355374449606 0.081534888569892508 0.00070914366636513513 0.07456956329994914 0.06538237517604098 0.12082940809790838 0.19464138901578876 -0.019707281650683611 0.020807821707733147 0.067236584394747098 0.045080520632210561 -0.026353860768415428 0.10476529041023189 0.13648724038594592 0.14860569099458773 0.09982411816500425 0.022737951093699124 -0.048618430865242562 0.0073942663197306101 0.018815072944975114 0.13281081196697608 0.13752290268303952 0.016534044669444452 -0.0045901164325375604 -0.029716338325293735 0.10453260599050598 0.026842034727887473 -0.049079184207894831 -0.0006885795833454771 -0.00042703814113619087 -0.048803908528850318 0.045313874409779076 0.018403840741414625 0.1071496778031895 -0.022083477173222309 -0.016650394897479475 -0.019215440527801282 -0.022987128533129633 -0.024536540920044602 -0.051793226008509254 -0.023371823141320046
leaf_weight=39.649863243103027 55.359741412103176 11.773607209324839 6.4148804768920007 13.4884035885334 6.0104916393756893 25.461193569004536 9.8928495645523089 19.254205517470837 8.7464931979775411 17.739143408834934 12.891377128660677 10.047022297978399 6.7210051864385587 11.062299884855745 20.472402404993776 23.394290633499622 20.771585643291473 52.531618736684322 20.729116402566433 20.622234687209129 12.139218583703039 7.5928288772702235 162.62460850924253 12.070734478533266 8.9681600555777532 13.904894355684521 8.5063007473945635 114.71907448023558 11.410842984914781 90.408936396241188 9.3158572092652303 11.619714088737963 9.4263438656926208 13.139001026749609 18.830309212207798 7.6618044152855855 9.2514406293630582 14.123674862086775 45.553307354450226 88.910543046891689 7.2347985953092566 308.40961986035109 6.8071844503283483 14.86970989406109 10.282000161707403 8.2357669025659543 13.646367751061915 9.4557302147150022 24.564821310341358 9.6826090514659899 49.777285452932119 34.632979478687048 15.291498277336357 13.065661028027536 16.3544537499547 17.271975606679916 23.429104663431644 66.602692469954491 94.424681551754475 23.893623679876328 15.274809449911119 11.138366334140299 12.201931878924372 9.9385528191924077 9.9185061082243902 65.082744978368282 17.977566681802273 8.3438707217574102 23.039419945329428 14.067573018372057 11.482760228216646 11.489978477358816 12.4630229473114 11.435102798044683 13.867136016488077 6.142919138073923 10.519015185534956 9.8523776903748495 6.623473048210144 22.702870532870293 10.912507984787224 6.6330915763974181 13.876539856195448 6.699320510029791 7.1981654167175293 44.554657012224197 23.415674917399883 37.484733276069164 7.5954267457127598 8.8228855580091459 6.8078304380178443 8.2241662442684156 16.58710578083992 9.8570768311619741 7.8371232971549016 7.1470784768462181 11.00125917047262 8.2887434437870962 13.91318743675947 10.377800963819025 7.6395061835646629 6.7521172203123561 6.8072689846158028 7.933526046574114 15.393044888973234 6.9217139780521393 11.401518478989599 6.3676459938287726 5.3504600077867508 5.788158454000949 6.4688154496252528 6.7101534083485603 14.051946211606262 6.3848121613264075
leaf_count=468 568 134 76 87 86 142 116 106 108 55 120 52 87 44 293 145 170 475 194 100 136 95 1805 90 73 120 110 1076 70 743 132 89 99 108 289 106 97 110 468 738 84 2944 80 142 112 70 128 79 218 113 578 358 195 110 148 157 231 658 1008 167 91 99 112 119 111 684 129 86 304 87 153 113 133 146 153 79 112 98 71 129 144 72 112 76 90 355 179 269 83 109 92 97 211 75 79 91 143 106 120 105 106 77 86 122 150 82 78 93 76 83 86 81 184 76
internal_value=0.0723111 0.0903595 0.0932689 0.037384 0.0574617 0.0710888 0.0673998 0.0978738 0.134802 0.0919718 0.147325 0.0728733 0.0432252 0.083676 0 0.0704371 0.15394 0.0876132 0.0798214 0.0964324 0.12915 0.0372191 0.0417381 0.0874567 0.0730281 0.00854382 0.0350751 0.0847748 0.0518263 0.103647 0.051448 0.0535723 0.0964255 0.0673749 -0.00790701 0.0246706 0.0671652 0.0684925 0.0750686 0.0922879 0.0176292 0.0641183 0.0710136 0.0470499 0.0849289 0.0378642 0.11108 0.0333587 0.11709 0.0481378 0.0511509 0.0343049 0.0681745 0.0614557 0.120449 0.113631 0.0673894 0.061998 0.0370426 0.181756 0.106657 0.134245 0.0579624 0.0238384 0.0169441 0.0741472 0.115641 0.0847509 0.0105721 0.147056 0.023162 0.0545363 0.0327298 -0.0183401 0.0351438 0.0152477 0.0311255 0.111097 0.0784503 0.163671 0 -0.0190719 0.109988 -0.0143754 0.00740912 0.113424 0.0991709 0.125757 0.0122666 0.02802 -0.00795451 0.0511792 -0.00140185 0.0989076 0.0596396 0.0831804 0.0435042 -0.00459662 0.0793004 0.0527492 -0.02659 -0.034287 -0.0280229 -0.0249713 0.0644107 -0.00162916 0.140891 -0.0453356 -0.0380152 -0.0422642 -0.0462291 -0.0140573 -0.0443751 -0.0430124
internal_weight=2535.91 1143.06 1113.46 85.3599 1392.86 710.101 684.64 1028.1 139.817 888.285 63.392 633.049 682.755 87.11 51.5904 623.002 124.437 824.893 621.406 45.6528 32.7615 595.645 541.762 486.988 18.861 71.8715 44.6526 474.918 134.418 159.132 388.481 379.165 41.4199 29.8001 53.8833 28.6854 599.608 590.357 315.786 134.464 16.6611 545.811 387.01 158.801 47.2006 18.5178 203.487 87.217 114.974 337.745 319.774 122.741 49.9245 197.033 44.5457 28.6828 44.1582 181.322 134.075 77.2522 47.1848 26.4132 76.0477 77.7613 153.281 373.492 189.841 22.2488 72.8167 28.1912 133.986 174.115 67.8228 29.5935 88.3648 40.288 34.5395 22.918 14.2163 57.998 45.6214 15.3796 171.863 22.4038 13.8975 157.987 75.9473 82.0394 34.1387 23.2261 15.6307 48.0768 30.3695 24.7268 39.8526 14.9842 24.8684 17.9714 41.5082 20.8968 13.7824 27.2189 14.4691 19.2945 27.595 13.6427 35.2951 25.198 13.284 32.7294 26.9412 13.5173 20.4668 17.8199
internal_count=24757 10064 9708 906 14693 6914 6772 8802 1020 7782 411 6121 7779 812 651 6069 840 7371 5724 356 236 6967 6227 4416 189 819 482 4326 1308 1386 4292 4160 380 291 740 358 5924 5827 2940 1206 183 5482 3789 1693 409 182 1647 899 961 3780 3561 1435 553 2126 345 227 425 1734 1476 480 360 190 768 820 1935 3628 1519 206 882 197 1651 1918 701 356 1070 507 386 208 166 374 581 180 1390 276 166 1278 654 624 428 284 201 563 396 217 466 170 296 219 382 217 185 337 192 284 262 169 245 382 198 462 379 161 260 222
is_linear=0
shrinkage=0.05


Tree=4
num_leaves=127
num_cat=0
split_feature=10 32 5 5 20 5 5 32 3 5 32 32 10 5 20 5 20 20 5 10 32 5 2 32 5 10 5 32 32 8 9 32 10 2 20 9 4 32 32 4 2 20 20 10 32 32 27 32 20 32 4 32 10 10 32 4 10 5 5 32 32 32 10 29 3 32 4 32 7 10 8 32 10 2 10 10 10 32 2 4 5 2 32 4 10 32 32 4 32 32 2 4 10 4 2 9 10 32 32 20 3 32 10 4 20 2 2 32 10 10 10 32 7 10 32 32 4 4 20 24 32 4 2 4 20 2
split_gain=176.55 199.037 151.03 105.041 88.5854 92.065 110.047 158.293 86.1928 60.9933 60.5541 53.5565 51.2368 42.7139 42.4034 38.2945 63.6399 55.1198 53.9973 41.2686 38.0304 37.0586 47.0152 40.768 35.6448 48.6259 46.4763 36.6573 35.5572 39.9011 38.5236 34.4918 32.4861 31.7317 30.0746 29.7232 29.5158 28.1554 26.1178 24.9114 54.3267 30.7924 23.2953 23.128 23.0094 38.9217 39.6662 36.0452 24.9135 21.7485 30.547 21.6599 32.869 33.8452 28.7529 20.0993 19.6123 19.0372 19.0027 24.2934 27.5235 18.3127 18.2897 18.2132 18.1356 17.786 16.8965 20.6922 16.6444 16.1463 16.1169 15.9226 14.4733 16.9402 38.472 14.2638 13.9549 13.7673 13.2945 13.266 12.9873 12.7795 12.5728 12.3264 12.271 12.2076 14.7217 11.436 12.748 11.5992 11.1938 10.6113 10.2869 9.47974 9.43133 9.27919 9.18871 9.16836 19.8867 9.08973 9.95193 9.08135 8.6803 8.5263 8.51022 7.92963 14.4989 17.317 11.4339 8.79808 11.8525 7.87766 7.80894 7.93499 7.71753 7.6651 9.57407 7.56168 7.5147 13.5726 8.3268 7.11877 6.95611 6.62078 10.0251 12.8804
threshold=9.5000000000000018 1.7776207177448831 2.5000000000000004 5.5000000000000009 3.0677824455408698 5.5000000000000009 3.5000000000000004 11.101662634137501 3.5000000000000004 1.5000000000000002 2.2503883115913679 3.0742281854556732 26.500000000000004 2.5000000000000004 2.1383330595080281 3.5000000000000004 2.9174053685313028 3.2384861814448418 4.5000000000000009 22.500000000000004 2.8805613220538961 1.0000000180025095e-35 2023.5000000000002 8.0942296882160409 1.0000000180025095e-35 14.500000000000002 4.5000000000000009 1.2042314545796711 1.1108498226124188 1.0000000180025095e-35 1.0000000180025095e-35 3.3205571527791378 13.500000000000002 2022.5000000000002 3.1567740231385479 1.0000000180025095e-35 2.5000000000000004 6.0971852407147038 5.4853720764492531 4.5000000000000009 2022.5000000000002 4.0942056540395164 1.7005986908310777 1.5000000000000002 4.9676722678561367 3.6728146203703558 1.0000000180025095e-35 6.1815300588369029 1.7005986908310777 3.2161894465874408 9.5000000000000018 4.1813725756757743 38.500000000000007 49.500000000000007 4.7116899537380386 5.5000000000000009 17.500000000000004 4.5000000000000009 4.5000000000000009 2.2503883115913679 2.413287242135548 1.589912716175045 30.500000000000004 2.9695723366682523 1.5000000000000002 9.2265044987414431 7.5000000000000009 4.8493185474570071 1.0000000180025095e-35 37.500000000000007 1.0000000180025095e-35 1.7670485560804783 25.500000000000004 2021.5000000000002 44.500000000000007 41.500000000000007 22.500000000000004 1.9675326972168785 2022.5000000000002 4.5000000000000009 1.5000000000000002 2022.5000000000002 1.7158892572701974 2.5000000000000004 27.500000000000004 1.2042314545796711 2.0442330025821884 4.5000000000000009 1.9629462255125694 1.9675326972168785 2023.5000000000002 11.500000000000002 21.500000000000004 7.5000000000000009 2022.5000000000002 1.0000000180025095e-35 18.500000000000004 6.0886859701673979 3.7898563755707571 2.1383330595080281 2.5000000000000004 2.0763100489950994 14.500000000000002 5.5000000000000009 2.602003343538398 2023.5000000000002 2022.5000000000002 3.3433977481255357 48.500000000000007 41.500000000000007 25.500000000000004 2.2503883115913679 1.0000000180025095e-35 1.5000000000000002 5.4853720764492531 1.3483066743280141 5.5000000000000009 6.5000000000000009 3.6105525490912482 1.0000000180025095e-35 7.7977497276199026 8.5000000000000018 2021.5000000000002 8.5000000000000018 0.89587973461402759 2021.5000000000002
decision_type=2 2 2 2 2 2 2 2 2 2 2 2 2 2 2 2 2 2 2 2 2 2 2 2 2 2 2 2 2 2 2 2 2 2 2 2 2 2 2 2 2 2 2 2 2 2 2 2 2 2 2 2 2 2 2 2 2 2 2 2 2 2 2 2 2 2 2 2 2 2 2 2 2 2 2 2 2 2 2 2 2 2 2 2 2 2 2 2 2 2 2 2 2 2 2 2 2 2 2 2 2 2 2 2 2 2 2 2 2 2 2 2 2 2 2 2 2 2 2 2 2 2 2 2 2 2
left_child=4 8 9 15 5 6 7 28 24 14 93 20 57 -14 21 16 63 -18 37 102 35 22 38 66 25 -2 27 79 91 30 44 87 -28 42 92 58 -13 51 56 40 41 -6 -12 55 45 48 -47 114 -30 50 77 52 62 -54 -53 82 -3 96 59 70 -61 -34 68 95 -35 -49 67 81 -17 -15 122 72 76 -74 -75 -58 80 -32 -51 -26 94 -23 -7 -82 117 -60 90 89 121 -31 -87 123 -16 101 -29 105 -10 98 -66 -38 -101 -11 -20 -21 -39 106 108 -108 -4 110 -107 -83 113 118 -46 116 -27 -81 120 -120 -41 -89 -8 124 125 -1
right_child=1 2 3 -5 39 43 11 -9 12 10 33 36 13 69 34 18 17 -19 19 103 -22 23 -24 -25 26 115 32 71 29 31 49 -33 61 64 -36 -37 99 104 -40 112 -42 -43 -44 -45 47 46 -48 65 -50 78 -52 54 53 -55 -56 -57 75 -59 85 60 -62 -63 -64 -65 97 -67 -68 -69 -70 -71 -72 -73 73 74 -76 -77 -78 -79 -80 84 83 111 -84 -85 -86 86 -88 88 -90 -91 -92 -93 -94 -95 -96 -97 -98 -99 -100 100 -102 -103 -104 -105 -106 109 107 -109 -110 -111 -112 -113 -114 -115 -116 -117 -118 -119 119 -121 -122 -123 -124 -125 -126 -127
leaf_value=-0.015517184686851912 0.14187112542167243 0.065531911541531956 0.087369770249430989 0.16149803488413347 0.031951687040133424 0.0093405155458726324 0.0091172464034757796 0.21528422325397378 0.061867303719547365 0.065271175399192319 0.18220068770943643 0.059396864200586201 0.18026553958967528 0.12389836525531726 -0.024000752642689235 0.033546799260392834 0.21630543405586461 0.077784630833974633 0.069903384039333369 0.089930491836361426 0.13494844340315584 0.020413377437331206 0.053411373271670795 0.0035751099939848839 -0.035101712522087283 0.090229516442734026 0.0044465506537508743 0.025598242144491898 0.068487108652495812 -0.039953097485089961 -0.01984484710525676 0.11359621855849103 0.072577469706842868 0.059987448851914295 0.094881125791182061 -0.030075188828746408 -0.032310984469371265 -0.040927159068264558 0.18252373090826998 -0.049972875440845971 -0.031281664736614964 0.1467396614253503 0.10909893382879579 0.1584213222045627 0.1072854814111083 0.057501359933523899 -0.051881329980015704 0.047170033276511029 0.11472554339029287 0.026409262152640181 0.12633457977671089 0.1354062864414651 0.14272430693578742 0.022854823325738453 0.026069855911690483 0.11591366607535902 0.15472288608060727 0.12603243934228961 0.027025341559915567 0.14346204517739403 0.030882770582492055 0.16028750582495965 -0.05114253222783998 0.0038715523839596075 0.14253700836426283 0.12524003253143787 0.11782739831394157 0.12146794383658098 -0.034533693875307289 0.03252674465564967 -0.014552256525041052 -0.022055597555239208 -0.00060757296597075425 0.10532525614431941 0.014360419419624407 0.081982357505767628 -0.032022266209803675 0.062063831611637289 -0.05081838270270992 0.050137915366920298 0.080432933044169874 0.10650437173267641 0.085629921245574059 0.028619132762857658 -0.035499608010915139 0.071200438767393778 0.024454897404168632 0.026207600929279925 -0.0026939081409329802 0.034163567630325235 0.13820541275697215 0.08662866902983507 0.042214070918881408 0.048372229824374224 -0.049539491421712767 0.022614583049269332 0.017530936975322917 0.16519991448781307 0.050964092094700444 -0.030860365573551287 0.03908100068524005 0.13035034542879273 0.0058580954884298536 0.15968691204798116 0.018339794936946291 0.10339984203210284 0.073257186015632636 0.01303452494675645 0.035747008743672287 0.13713638205847839 0.036711882347900807 0.045773169258491696 -0.041243810711804454 -0.036540745201807223 0.17624541480814787 0.014258395017672003 0.018931788765488039 0 0.07395752682518536 -0.0057464401418908526 0.016735215458933504 0.08185893375069514 0.036259933870696918 0.0037185500287338622 0.074370435117893985 0.037497478073228556
leaf_weight=13.947837583720682 17.49275354295969 15.530183404684065 73.204459495842457 29.368650574237108 13.819599393755199 10.607961334288122 32.566405907273293 16.296927481889725 38.628936737775803 14.158774226903917 71.330604679882526 13.430208306759594 21.946669667959213 9.3912762179970759 12.016503032296898 55.111487273126841 14.283022608608009 16.654474154114723 10.820815037935974 11.627098556607963 9.7306685075163823 18.005249246954918 20.407956276088953 14.610835738480089 29.013648420572281 11.752973861992361 11.505900520831345 8.375367768108843 375.01645428687334 14.380888469517233 10.88197790831328 9.970832593739031 20.296241298317913 13.227712351828812 16.886695645749569 15.555273760110138 47.156871356070042 14.630707897245886 28.741128623485565 7.9920543320477035 16.333550408482552 10.74115715920925 17.639908097684383 19.304007146507502 13.606518168002369 21.409201845526695 12.755139678716658 30.435091905295849 33.734520670026541 10.461441088467838 9.2549645937979204 12.459913004189731 11.108421482145786 13.139923363924026 12.528159018605946 33.320186275988817 32.929737992584705 9.266031362116335 21.159648172557354 9.318214491009714 13.971020951867102 10.162574194371699 9.0644647590816003 11.384989537298678 17.287453185766939 10.306835696101187 46.028997365385294 17.353331595659256 10.076455999165772 11.585564240813254 22.603288941085339 11.350316539406775 10.003427684307097 29.297621056437492 20.03729173541069 12.275090411305426 9.0036871545016748 8.6638446711003763 10.633890628814695 14.721452984958889 15.23587818071246 12.560919541865589 11.99920706450939 54.472581125795841 10.882889192551373 31.626818597316742 12.87717195227742 14.935765214264395 17.131359688937664 7.5425578057765952 9.5951861217617971 8.2669166326522809 10.397910151630638 18.060589134693146 7.24316157773137 10.985636152327059 18.933208428323269 17.762804552912712 11.055790930986403 8.5595724098384398 10.881711278110741 13.6467706002295 11.171599999070166 15.865377888083456 9.3092703148722631 18.393640082329515 24.203529238700867 25.00175603479147 14.954178281128405 10.501746401190756 12.895622961223124 13.446488309651611 15.83874975889921 11.620796278119085 13.93541384488344 17.443312630057335 9.1952379159629327 15.834237370640038 9.1586711667478085 11.100487902760506 9.5713386312127096 11.212513193488119 109.91870839521289 23.670240938663483 13.243005916476248 51.365190990269184
leaf_count=159 157 127 578 168 151 112 343 66 355 123 325 130 145 74 131 558 58 147 99 89 72 157 168 151 381 119 121 86 3476 183 139 76 194 109 127 198 533 169 115 100 211 62 128 138 109 195 156 287 281 111 74 100 83 129 119 245 209 72 229 73 143 70 102 102 119 85 315 112 117 105 281 125 112 279 222 87 106 94 142 155 154 92 92 584 137 291 127 173 190 78 81 71 96 145 88 117 187 95 88 105 119 80 117 104 108 149 212 225 128 72 113 116 209 153 82 184 99 184 97 132 114 115 1211 260 134 596
internal_value=0.0648961 0.0775107 0.0907509 0.0701547 0.0517292 0.0555809 0.0519516 0.0628118 0.049791 0.110925 0.132789 0.0293955 0.0882735 0.13115 0.0949998 0.0636915 0.0775916 0.144636 0.0470512 0.0922012 0.0394143 0.103216 0.124874 0.0831568 0.0369617 0.0734712 0.0294347 0.0206133 0.0593225 0.0639045 0.0685136 0.0290785 0.077754 0.14856 0.0454588 0.0357957 -0.00660889 0.0315346 0.140619 0.00773879 0.038181 0.0846766 0.168565 0.10929 0.0726266 0.0681815 0.0160717 0.100536 0.0724754 0.0257745 0.0537617 0.0411669 0.0300981 0.0801485 0.082764 0.090812 0.119216 0.059742 0.0397887 0.0309962 0.0786257 0.104442 0.0131259 0.0668924 0.117155 0.0685627 0.093778 0.0746902 0.0226121 0.0760641 0.0239693 0.0334936 0.0377521 0.0572707 0.0691958 0.136412 0.0250786 0.016356 -0.0121009 -0.00936798 0.0314301 0.0547524 0.0514585 0.0406497 0.00849577 0.061249 0.0739899 0.0151597 0.0300553 -0.0135918 0.088626 0.032633 0.00631217 0.0804175 -0.00877242 0.0705671 0.0478192 0.132414 0.10884 -0.0204866 0.00753346 0.0994799 0.0388903 0.132855 -0.0173632 0.0733529 0.0665808 0.0433981 0.0790333 0.0942072 0.0773965 0.0771264 -0.0112482 -0.00102235 0.145233 0.0404965 0.0608036 0.0249677 0.00983347 0.0304767 -0.0133323 0.0517222 0.0302147 0.02772 0.0346931 0.0259162
internal_weight=2680.6 1367.18 924.107 458.745 1313.42 1207.24 1132.01 763.059 443.072 465.361 194.17 368.951 109.752 42.9235 271.191 429.377 232.463 30.9375 196.914 49.4849 288.922 231.89 109.884 122.006 333.321 55.8843 277.436 235.472 746.762 636.269 561.095 75.1739 41.9647 148.304 39.3011 279.192 80.0284 147.429 89.4761 106.176 40.8943 24.5608 88.9705 75.2314 511.199 442.915 34.1643 68.2839 408.751 49.8961 28.8008 123.489 98.5008 24.2483 24.9881 55.9274 60.735 66.8282 263.636 188.378 23.2892 30.4588 74.2524 201.526 59.3338 40.7419 107.395 61.366 65.1879 20.9768 165.088 165.019 153.669 59.3383 49.3349 45.2048 94.3307 19.5458 21.0953 70.4522 85.327 44.0127 22.6072 69.7085 41.4386 75.2588 54.0992 65.2031 43.2796 21.9234 41.222 110.493 22.4144 45.8661 15.6185 190.141 57.5621 46.106 28.3432 66.5982 19.4413 27.8055 21.9924 27.4925 23.94 179.155 137.364 49.2053 88.1586 41.791 31.2893 26.0074 65.2821 49.4433 27.5419 38.3915 20.9482 30.5557 37.8226 20.2592 17.5634 26.1483 142.485 102.226 78.556 65.313
internal_count=24757 11673 7178 3963 13084 11855 11268 7332 4495 3215 1212 3936 938 324 2003 3795 1901 205 1894 409 3049 1649 706 943 3557 559 2998 2613 7266 6046 5231 815 385 864 354 2977 887 1485 538 1229 424 213 453 587 4671 4108 351 563 3757 560 307 1208 989 212 219 449 423 614 2779 2051 216 264 777 1696 411 372 792 477 675 179 1835 1756 1631 613 501 296 1018 233 253 857 912 365 204 738 476 728 499 739 478 261 372 1220 227 348 174 1594 542 302 207 757 224 203 216 193 277 1477 1143 437 706 334 262 208 805 596 191 402 218 339 443 229 214 288 1554 1149 889 755
is_linear=0
shrinkage=0.05


Tree=5
num_leaves=127
num_cat=0
split_feature=0 5 5 2 33 1 10 20 1 1 1 20 9 20 4 2 13 10 5 33 0 0 32 19 32 8 5 5 9 33 10 5 5 32 19 0 0 2 33 1 10 10 19 33 0 5 10 19 32 10 0 1 10 32 19 19 32 2 4 32 10 33 5 33 19 32 1 4 1 1 10 32 2 19 32 0 10 32 0 1 5 33 0 33 20 2 10 33 19 32 5 0 19 33 10 1 32 19 32 19 4 10 33 15 4 33 5 5 19 5 19 0 4 33 10 4 33 10 1 19 5 10 10 10 5 10
split_gain=169.936 131.981 95.5613 78.1396 76.3862 86.8021 76.5719 63.7891 76.4171 55.2257 64.1696 54.7503 54.2694 51.5579 46.2608 92.0037 45.4058 43.0052 70.9522 44.4057 49.789 40.642 32.4851 32.0095 39.1957 32.0011 31.4502 31.6224 30.8987 30.7501 29.9158 28.7743 28.0064 29.4121 28.8513 30.5902 27.6644 29.9629 37.5224 27.5576 30.3027 30.4086 26.7175 26.6822 25.4695 25.3378 25.0319 24.843 24.7641 27.2436 23.1695 26.0046 22.8778 37.7754 32.0677 31.2826 27.6234 24.7106 24.52 23.7592 22.0118 21.1435 25.7699 20.0927 19.9437 20.8648 24.6378 19.8131 19.2091 32.5482 17.4397 20.2096 17.2694 21.2649 21.1928 17.7644 17.2594 15.9472 15.6904 15.5999 15.0001 14.8584 44.0719 20.3355 14.5809 14.4254 14.2433 14.1281 14.0896 22.9828 13.8451 24.3023 13.7214 13.4442 13.3206 13.3031 15.2028 12.6604 12.3157 12.6276 11.8368 12.1365 11.32 11.3139 10.3781 14.0887 13.6578 9.78961 20.9073 22.965 13.2346 9.60965 9.5248 9.07108 7.65839 7.05398 6.99887 12.7487 7.28055 7.0236 6.35708 6.21029 5.34381 4.97628 7.36062 4.77454
threshold=2.3144311491224401 2.5000000000000004 5.5000000000000009 2022.5000000000002 6.1483909005701882 1.8688348091416842 24.500000000000004 4.1820210059610323 3.4811217321331038 4.2549835731622503 3.9415346756528771 3.0201273556387074 1.0000000180025095e-35 3.4175922930736511 10.500000000000002 2023.5000000000002 1.0000000180025095e-35 17.500000000000004 4.5000000000000009 2.8933233444138229 2.8026068289618116 1.7909254406777066 7.5521455227058771 2.5000000000000004 9.5851560714833663 1.0000000180025095e-35 5.5000000000000009 3.5000000000000004 1.0000000180025095e-35 4.1946400550949958 25.500000000000004 1.5000000000000002 4.5000000000000009 1.7221171065250303 6724.0000000000009 1.6173745870122456 2.4240189650750161 2021.5000000000002 1.6617791374188753 0.89587973461402759 29.500000000000004 1.5000000000000002 5331.0000000000009 4.5901555793400561 1.7621497893980695 5.5000000000000009 13.500000000000002 1.0000000180025095e-35 1.7221171065250303 39.500000000000007 3.285767075415277 2.602003343538398 8.5000000000000018 6.4561367976468214 7324.5000000000009 3.5000000000000004 2.4096190841746044 2023.5000000000002 6.5000000000000009 1.4409255537802914 14.500000000000002 2.1101370695099555 3.5000000000000004 3.9961446974519759 12413.500000000002 6.1815300588369029 3.2769667020129059 4.5000000000000009 3.3497501700808394 2.4414009612931857 1.0000000180025095e-35 2.5795441137373536 2023.5000000000002 2379.5000000000005 2.0763100489950994 3.1589107553511933 8.5000000000000018 5.738155051517511 1.7621497893980695 1.2424533248940004 1.0000000180025095e-35 1.9629462255125694 2.6387000591463248 3.2484943877111649 1.4978661367769956 2023.5000000000002 2.5000000000000004 1.9650212054777081 2.5000000000000004 1.3483066743280141 1.0000000180025095e-35 1.3479888099339705 1.5000000000000002 1.3424366481084753 13.500000000000002 0.89587973461402759 4.3332807463249461 12.500000000000002 2.2503883115913679 2850.5000000000005 11.500000000000002 1.0000000180025095e-35 5.1759959291132107 1.0000000180025095e-35 9.5000000000000018 1.519310686030378 1.0000000180025095e-35 2.5000000000000004 7540.5000000000009 1.0000000180025095e-35 11686.500000000002 2.9380861877113067 6.5000000000000009 8.4395965673374498 3.5000000000000004 4.5000000000000009 1.589912716175045 1.5000000000000002 1.4978661367769956 1.5000000000000002 2.5000000000000004 11.500000000000002 29.500000000000004 13.500000000000002 2.5000000000000004 10.500000000000002
decision_type=2 2 2 2 2 2 2 2 2 2 2 2 2 2 2 2 2 2 2 2 2 2 2 2 2 2 2 2 2 2 2 2 2 2 2 2 2 2 2 2 2 2 2 2 2 2 2 2 2 2 2 2 2 2 2 2 2 2 2 2 2 2 2 2 2 2 2 2 2 2 2 2 2 2 2 2 2 2 2 2 2 2 2 2 2 2 2 2 2 2 2 2 2 2 2 2 2 2 2 2 2 2 2 2 2 2 2 2 2 2 2 2 2 2 2 2 2 2 2 2 2 2 2 2 2 2
left_child=3 4 9 7 5 6 25 8 13 10 12 22 17 16 21 90 26 64 19 61 77 28 -10 24 -6 29 27 39 32 36 42 50 33 78 35 70 37 -2 47 67 41 -41 60 -22 -28 52 103 -39 49 -32 51 92 56 54 55 58 57 97 94 -59 -29 62 -19 72 65 81 -67 76 69 87 -35 -72 73 74 -8 -76 -1 -21 104 100 -53 82 -3 -83 121 -63 -69 -36 114 -90 -16 -92 -7 -18 -54 -14 -97 -23 99 -27 101 -38 -98 -4 105 106 -5 108 109 -80 125 -74 -42 -25 -34 -37 117 -93 -118 -119 -117 -30 -33 -56 -125 -109
right_child=1 2 46 14 23 31 63 -9 11 -11 -12 -13 95 -15 15 -17 93 18 -20 20 43 45 -24 113 -26 98 44 30 84 -31 48 122 88 34 68 115 79 38 -40 40 112 -43 -44 -45 -46 -47 -48 -49 -50 -51 -52 80 53 -55 123 -57 -58 59 -60 -61 -62 85 -64 -65 -66 66 -68 86 -70 -71 71 -73 111 -75 75 -77 -78 -79 107 -81 -82 83 -84 -85 -86 -87 -88 -89 89 -91 91 116 -94 -95 -96 96 102 -99 -100 -101 -102 -103 -104 -105 -106 -107 -108 110 -110 -111 -112 -113 -114 -115 -116 120 118 119 -120 -121 -122 -123 -124 124 -126 -127
leaf_value=0.040835117844966067 -0.016851845600434453 0.047262196376492135 0.05299859331443102 0.035324181760799246 -0.0020517045496943561 0.10220222488207704 0.047448794466604806 0.12981621152062792 -0.0022708733777751888 -0.041453944512321921 0.14237586457325535 -0.042274063819302293 -0.050753039868671627 0.16002717686831758 0.096112722277195695 0.18489773790760897 0.067351104334700262 0.072390864109079675 0.15134284436909456 0.090244643768988553 0.083680542609165742 -0.034878386673154731 0.11973998235365885 0.010302919670052101 0.13182674547764245 -0.029076926277710052 0.05223092911931914 0.039823599143193555 -0.0087773858158754041 -0.0081878083596664663 0.098629382758605985 0.15849208324793015 0.053260579735575922 0.12121146468921995 -0.050603818982473639 0.048197878971499977 0.09169237265753534 0.038732962967891249 0 0.053593841716291862 -0.010161759947831486 0.096750747621139707 -0.05107031414970168 0 0.13933248399444914 0.11810728406482691 0.15639476523674678 0.12720807560080113 0.12591205296681784 -0.029196630375156209 0.045509154363462354 0.11069958422054083 0.071126884391963949 0.1494620913068552 -0.027390915138600414 0.15263723930012307 -0.012799907362876671 0.023606523919501701 0.10337996097487137 0.10939258536242756 -0.009109084125812926 -0.004611681550770296 0.02092132817942198 0.17133226851300679 0.10122099115461614 -0.036285928368086029 0.043974934724316773 0.072078332938144765 -0.038774538347001251 0.090107519888358925 0.010662647096523068 0.10435138869522434 0.033474271937619322 0.13880421486806283 0.12869517536039096 0.060495484356335484 -0.017559268268305558 0.16845266705098419 0.0033980634041108544 0.13355689973365312 0.04551753684883781 0.068515450930915198 -0.027682333023274504 0.01771510744196348 -0.044589758030660086 0.062891087990726624 0.038999241539951872 0.022194272134536602 0.1089320413840732 0.014493995824578387 -0.017995348884947315 0.023940903036294918 0.16847850324214972 0.13087747153878046 0 0.060180098382058213 -0.050474396025972881 0.040755208902991218 0.058541060914427727 0.040646963020162422 0.13056222580114646 0.058583837758234891 0.020449701804250462 0.1179509571576892 0.049749313914385147 -0.051616898799487235 -0.0052155374693209494 -0.027964546150455412 -0.0028754332805942676 0.10432552672298925 0.066506006677933022 0.093448510262216331 0.047077881531129628 -0.050821826659834139 -0.0027577785157103384 0.029015646033115256 0.055148786532853093 0.049644352231080296 -0.0019717052028519872 0.11396470710498002 -0.030953212251186149 0.054727964722856771 0.11922665505719832 -0.013846225889566539 0.043783079703434508 0.015979302813187685
leaf_weight=32.721337448805571 14.186123751103876 71.541959770023823 17.107390366494656 25.128799516707659 10.143090944737198 19.242987394332886 21.717755660414696 30.092634193599224 10.248231340199711 15.730998564511536 18.784250877797604 32.732745405286551 11.201919604092835 12.421596013009546 12.310196511447428 13.931668028235434 16.747453950345516 72.019083298742771 23.170102395117283 15.207347095012663 24.716385655105114 10.40471386164427 10.578392982482908 13.08481787890196 10.79995585978031 14.976924128830435 17.436567030847073 136.39493998140097 8.2487420961260778 11.370784595608709 7.6095781102776545 51.207597903907299 12.624904088675978 20.450382970273495 9.3133571073412913 11.582519724965097 60.208700112998486 14.567590102553366 15.713756285607813 72.129190772771835 11.750411987304689 109.90832969918847 9.798585541546343 15.573396533727644 19.374948844313622 12.661340445280073 24.925837285816669 20.755279116332531 15.017027191817759 7.9626854136586189 16.81196890771389 21.139277033507824 9.3324063718318957 10.673159286379812 7.3809187561273601 9.6970899775624257 29.843721248209476 15.333598695695398 15.098675034940241 18.861342616379261 26.849309168756008 31.031929202377796 38.821511998772621 12.631714828312395 11.928446732461451 20.216218821704388 17.249063290655613 68.667783483862877 13.128219086676834 14.064876705408095 13.065709486603739 10.595737114548681 15.389303557574751 45.157015971839428 37.252509921789169 16.067876175045967 19.644858278334141 18.788945570588112 8.7558075189590472 17.107030309736729 18.667205143719912 74.742309279739857 26.30714076012373 28.461312979459763 23.562474839389324 9.9538200050592405 72.235672049224377 20.219944249838591 22.117103330791 9.7919457890093309 14.85678695887327 12.97733763605356 24.339534670114517 26.606779150664806 19.169101193547249 10.249808736145498 9.9163378514349478 10.668958723545073 13.458402059972284 10.687555268406866 11.752681486308573 68.215602718293667 11.459802094846962 14.620617203414442 9.715578079223631 12.726831030100582 108.02034499123693 14.397015571594244 13.91149204969406 17.306905388832092 6.8554904460906974 14.708837725222109 16.602097854018211 10.162722822278736 10.412968166172503 8.0357263088226336 10.695399679243566 9.6620527654886263 10.088268600404261 13.058235056698321 8.6098547577857953 6.0790338516235343 27.871039383113384 9.0270983502268809 12.094174116849898 9.6949963532388193
leaf_count=338 146 665 118 286 103 103 184 142 116 195 94 462 155 52 94 44 140 554 123 114 187 125 73 138 78 189 140 1305 117 107 69 211 128 157 116 119 442 135 142 648 108 809 116 152 129 80 111 157 102 93 139 94 82 64 85 65 355 161 124 167 273 291 382 62 98 232 162 612 170 116 137 87 139 231 197 115 240 77 95 102 161 649 284 275 370 80 672 221 192 104 169 129 103 141 194 90 134 111 114 110 67 513 143 86 102 161 1381 186 166 165 67 88 134 131 115 84 89 89 99 99 103 71 112 99 121 118
internal_value=0.0586976 0.0720567 0.0556129 0.047301 0.0877836 0.0923529 0.0800157 0.0583333 0.0553742 0.0494016 0.0520091 -0.00190096 0.0487246 0.0597769 0.0355081 0.0676703 0.0578287 0.0533523 0.0681612 0.0592561 0.09111 0.0305216 0.0603527 0.0235142 0.0677516 0.0634749 0.0543658 0.0515116 0.0222033 0.0704997 0.0351151 0.121962 0.0262078 0.0209511 0.0399966 0.0608865 0.0745975 0.0461381 0.0639315 0.0596923 0.0724084 0.0799264 0.0267748 0.0518997 0.0997298 0.0499398 0.117632 0.0921885 0.080624 0.0334589 0.102466 0.113431 0.0446774 0.0619877 0.0495531 0.0723004 0.0254428 0.0462916 0.0525646 0.0722516 0.0316806 0.0433242 0.0546735 0.107361 0.0384461 0.0350388 0.000363666 0.0456212 0.0127956 0.0289281 0.0867915 0.0545291 0.101335 0.110174 0.091941 0.109175 0.0186862 0.135718 0.00996879 0.0861204 0.0814485 0.041409 0.0269222 0.0548034 -0.0205696 0.0119809 0.0554239 -0.000723506 0.0594594 0.0810853 0.0469851 0.0376888 0.141047 0.107727 0.0238098 -0.00491987 0.0113846 0.00277442 0.020742 0 0.0797706 0.0745177 -0.0121678 0.0847604 0.000959786 -0.00234604 0.00242669 0.0293781 0.045652 0.0716857 0.00748883 0.0643218 0.0230706 -0.0162937 0.0277826 0.0190769 0.0526286 0.0663665 0.0273231 0.0889157 -0.00112622 0.0180921 0.145678 0.00598685 0.0187083 -0.00970556
internal_weight=2812.9 1293.12 633.726 1519.77 659.396 615.205 435.925 783.531 753.439 577.072 561.341 53.5594 542.557 699.879 736.243 97.5799 687.458 499.729 249.283 226.112 74.2861 638.663 20.8266 44.1906 20.943 273 644.103 607.292 448.417 233.878 203.632 179.28 410.527 355.58 129.066 72.3399 222.507 65.2227 51.0366 403.66 210.39 182.038 173.043 40.2898 36.8115 190.246 56.6538 35.3229 30.5893 15.5723 100.201 83.389 177.585 92.4726 81.7995 53.2973 85.1123 55.2686 43.6002 34.1949 163.244 151.826 110.841 162.925 250.446 238.518 37.4653 193.27 56.7264 43.5982 44.1118 23.6614 150.293 120.195 75.0381 53.3204 52.3662 33.9963 226.513 157.284 39.8065 201.053 97.8491 103.204 37.8903 40.9857 140.903 29.5333 54.9469 31.909 83.6483 71.3381 43.5825 43.3542 28.5015 42.8279 31.6259 21.0737 39.1229 25.6645 140.177 128.424 21.3761 31.728 155.592 145.876 133.149 70.9217 39.9742 26.0627 30.9475 30.0981 28.3525 23.2475 23.0379 28.2281 56.4813 35.6976 20.7837 22.7203 16.6456 14.3278 79.0786 28.5022 21.1213 24.092
internal_count=24757 10064 5451 14693 4613 4163 3240 6914 6772 5136 4941 651 4847 6121 7779 812 6069 4325 1960 1837 530 6967 189 450 181 2224 5788 5519 5134 1811 1958 923 4576 4037 1310 687 1704 580 434 3561 1699 1457 1694 339 269 1833 315 292 264 162 600 461 1753 834 770 465 919 564 400 328 1578 1307 936 1016 2365 2267 394 1862 623 453 381 224 954 727 496 312 578 191 2727 1124 255 1873 949 924 558 371 1284 337 539 296 768 674 206 281 276 522 367 236 413 299 1022 955 277 204 1930 1828 1667 797 426 260 371 227 242 269 243 306 505 317 188 188 187 188 323 305 220 304
is_linear=0
shrinkage=0.05


Tree=6
num_leaves=126
num_cat=0
split_feature=32 10 20 4 20 20 27 32 9 20 19 20 2 2 10 10 1 2 33 20 1 1 9 33 4 33 20 19 19 2 2 20 4 19 32 33 10 33 20 20 19 9 32 4 4 1 33 33 33 16 4 10 33 1 1 4 33 4 10 10 1 1 1 10 4 19 33 20 2 4 13 19 33 1 33 10 4 4 19 33 1 2 32 10 10 10 4 32 10 2 19 4 33 19 19 19 19 7 20 32 4 19 10 33 33 19 1 32 19 33 1 1 1 10 10 4 10 4 10 19 19 10 33 32 32
split_gain=115.972 125.952 80.8362 68.7238 54.4726 124.739 49.6725 49.1678 57.696 47.8413 44.5368 39.8222 39.1896 36.1306 34.7629 34.4303 32.8013 30.5049 28.6772 27.4684 27.1968 104.698 43.4146 25.9639 63.4333 25.3936 27.7051 24.9961 27.6114 33.8833 72.8594 35.4708 32.2494 26.7118 52.5784 37.5972 24.9211 28.8074 24.4858 31.4501 23.6724 23.382 22.7797 21.7401 54.3441 20.2014 20.7285 20.5574 19.6151 18.8205 18.1268 19.1074 17.8918 17.7785 31.5961 21.6622 17.7586 30.1911 21.6458 17.4511 17.3105 33.5238 47.7304 16.6766 23.6258 16.4564 22.9279 21.2266 19.6411 15.5532 15.0771 14.7472 14.1656 23.1287 13.8623 13.2006 13.0893 12.2903 11.9442 14.0053 11.9058 11.8146 11.1815 10.728 16.6509 10.3515 19.0318 9.68991 9.49063 9.36654 9.02286 8.89212 24.7429 14.5969 8.54059 7.32544 25.4365 8.8782 7.26295 7.09559 7.08941 29.5211 14.1086 8.91894 10.298 6.89278 5.50815 5.4093 5.2211 4.95438 4.82241 3.95196 7.24005 3.81684 3.79279 3.6873 3.33304 3.30454 3.27642 3.08819 2.83839 2.63495 2.60255 2.0237 1.77361
threshold=1.7639025068199086 9.5000000000000018 2.9700856263602158 9.5000000000000018 4.1820210059610323 3.6505739029280164 1.0000000180025095e-35 3.0742281854556732 1.0000000180025095e-35 3.4175922930736511 4155.5000000000009 2.8029010331479989 2023.5000000000002 2022.5000000000002 37.500000000000007 26.500000000000004 3.2384861814448418 2021.5000000000002 2.4096190841746044 1.8688348091416842 4.033888097889446 4.37240336870095 1.0000000180025095e-35 2.8076077635796088 4.5000000000000009 1.8768462355980031 0.89587973461402759 12982.500000000002 11521.000000000002 2022.5000000000002 2021.5000000000002 0.89587973461402759 4.5000000000000009 1.0000000180025095e-35 1.519310686030378 1.4341431336964017 10.500000000000002 2.2838129690726277 3.2769667020129059 4.0942056540395164 12469.500000000002 1.0000000180025095e-35 11.101662634137501 9.5000000000000018 7.5000000000000009 2.6735537653587347 2.4096190841746044 3.1990434904543172 2.2803414440750882 1.0000000180025095e-35 1.5000000000000002 7.5000000000000009 0.47871579930198721 2.524928003624769 2.8029010331479989 7.5000000000000009 2.1469362068531148 3.5000000000000004 48.500000000000007 21.500000000000004 3.6242520361853052 2.6735537653587347 2.4414009612931857 1.5000000000000002 2.5000000000000004 9234.0000000000018 1.921595379460509 0.89587973461402759 2023.5000000000002 3.5000000000000004 1.0000000180025095e-35 5838.5000000000009 0.95656407977734281 1.2424533248940004 0.95131286431213058 15.500000000000002 8.5000000000000018 6.5000000000000009 12304.500000000002 1.4341431336964017 3.7012257604091228 2021.5000000000002 3.8600643041260372 24.500000000000004 47.500000000000007 12.500000000000002 8.5000000000000018 5.4130676829571849 31.500000000000004 2022.5000000000002 619.50000000000011 2.5000000000000004 1.651236354240593 1.0000000180025095e-35 1881.5000000000002 5.5000000000000009 2.5000000000000004 1.0000000180025095e-35 1.7005986908310777 10.979890659144759 11.500000000000002 1.0000000180025095e-35 1.5000000000000002 1.651236354240593 0.96003850900977128 1.0000000180025095e-35 1.2424533248940004 1.3424366481084753 4980.0000000000009 1.1108498226124188 1.2424533248940004 3.6505739029280164 3.4811217321331038 18.500000000000004 12.500000000000002 7.5000000000000009 41.500000000000007 3.5000000000000004 54.500000000000007 8.5000000000000018 13337.500000000002 5.5000000000000009 2.1337669173523257 1.4341431336964017 2.0442330025821884
decision_type=2 2 2 2 2 2 2 2 2 2 2 2 2 2 2 2 2 2 2 2 2 2 2 2 2 2 2 2 2 2 2 2 2 2 2 2 2 2 2 2 2 2 2 2 2 2 2 2 2 2 2 2 2 2 2 2 2 2 2 2 2 2 2 2 2 2 2 2 2 2 2 2 2 2 2 2 2 2 2 2 2 2 2 2 2 2 2 2 2 2 2 2 2 2 2 2 2 2 2 2 2 2 2 2 2 2 2 2 2 2 2 2 2 2 2 2 2 2 2 2 2 2 2 2 2
left_child=3 2 11 18 5 6 7 8 14 13 16 20 15 56 23 59 -4 -17 19 27 22 -22 25 36 -25 26 91 28 29 30 31 85 50 35 -35 -34 -3 -38 -18 87 78 53 -23 44 48 46 124 -48 -16 65 121 -52 117 55 -55 82 83 88 -59 70 61 62 -15 95 75 66 90 -67 -68 -63 72 -19 81 100 -66 -65 -26 110 79 109 -7 -5 -8 113 -85 86 -1 -40 -58 -49 -27 -2 93 -93 -94 96 -54 -97 -69 115 103 123 -103 104 -74 -83 -28 -42 122 -30 -33 112 -12 -9 120 -89 -87 -31 -45 -21 -29 -32 -10 -102 -24
right_child=1 4 10 12 -6 80 41 9 108 -11 111 -13 -14 60 43 17 38 71 -20 119 21 42 45 24 76 49 106 114 40 52 32 77 33 34 -36 -37 37 -39 39 -41 107 -43 -44 118 -46 -47 47 89 -50 -51 51 -53 63 54 -56 -57 57 58 -60 -61 -62 69 -64 64 74 67 68 98 -70 -71 -72 -73 73 -75 -76 -77 -78 -79 -80 -81 -82 105 -84 84 -86 116 -88 99 -90 -91 -92 92 94 -95 -96 97 -98 -99 -100 -101 101 102 -104 -105 -106 -107 -108 -109 -110 -111 -112 -113 -114 -115 -116 -117 -118 -119 -120 -121 -122 -123 -124 -125 -126
leaf_value=0.006718456102539851 0.12411591083736161 0.11041089429646758 -0.051996133047495466 0.055186538820962749 0.16455334088684495 0.013494095761824166 0.026550061950264776 0.11390128561366944 -0.050007712329234101 0.16697780118655203 -0.049294617037643873 0.11958744403268184 0.13987936462026904 0.062920244866811956 0.11297625404937622 0.16518404935333161 0.10561917402810178 0.031773182391595226 0.12264872562638288 -0.0042742740916317194 0.17978243984972497 0.061629139688138469 -3.6426130087311806e-05 0.1722162050651348 0.0024109588321510268 -0.0064781481164290352 -0.0032904826226768818 -0.025714375843515037 0.0079768213695994555 -0.001665476957868367 0.05093063585846646 0.054686139079020514 0.13566549889516891 0.02366392001307295 0.12197083775744424 0.043267578735005141 0.057120471330711658 0.010951775135237875 0.032971312064240942 0.075524694160348127 -0.003136272570180803 -0.024368376104543933 -0.035607242556030871 0.1013189634910396 0.00017911167150929942 -0.051189718063521607 0.084147304366269979 0.040677412043453015 0.046802715502978404 0.10690674534302827 0.046167048762886576 -0.014060412569757021 0.0085933326287875589 0.1078602190970933 0.019162377434067193 0.069331233278595694 0.0093741317674577371 0.10612215366892737 0.049250614162654908 -0.016092681809308323 0.10988087280730428 -0.022678581401652326 0.14762212094424157 0.082453228000036613 -0.026125747286935154 0.060252285662895921 0.046684236594897725 -0.026757707367597378 0.081248948379804883 0.042438237768638615 0.11185195824498227 0.1042861321291513 0.072080835330755474 0.12773735058924204 0.026303677598476755 0.031745662458787641 0.079185652237368287 0.018959668915135036 0.14079132158035101 0.112752197939407 -0.052497536739724196 -0.03396881409714065 -0.039274619752703813 0.073618873189129228 0.13649318472620117 -0.021680099279712265 0.073763084127016737 -0.051126980158289717 0.068352984889115787 -0.030559710233248272 0.042726210633004601 0.066443365791193504 0.073442480686975495 -0.015829268429901133 0.11985763809750252 0.0039862598663321178 0.096095042654051374 -0.050155376547202361 0.019960847163062071 0.0243752256964146 0 0.06032453398932619 0.13534964829592572 0.068054332835773057 0.02079493766133713 0.019957010300626243 0.044763102629161756 0.049161595215155104 0.020735446674629416 0.063027448634894193 0.11098460729205195 -0.052312907556385735 0.019510118033212915 0.15995829549471649 -0.048986879677320495 -0.0033119373611278781 0.01388346163735339 -0.049346170509653078 0.15023905268492416 -0.050518076557140669 0.01736375408243563 0.0990615838094384 -0.0057707606393080889 0.03107221878861377 -0.035047906569818092
leaf_weight=81.774920515716076 15.181476715952156 18.576162174344063 10.607528258115051 13.828905060887335 15.738653637468813 9.622263543307783 12.499710246920587 22.856760829687119 7.6873960718512553 19.033538985997438 7.292807608842848 21.415960520505905 15.349102959036825 111.60956538468599 53.155777577310801 12.279904559254645 11.576151683926581 15.535991422832014 8.4636032208800298 7.247039586305621 17.736688189208508 13.063246864825489 6.7134477682411697 16.452449433505535 11.462401673197748 25.18627293407917 10.388935975730421 7.0468906015157717 8.0706141926348263 7.0362803339958218 9.5628533437848109 10.760126434266569 36.363586150109768 41.729042947292328 20.312474742531776 17.383628338575363 213.8222144395113 41.422388166189194 13.554353982210158 20.536347508430481 10.476320244371893 12.293305881321428 10.203712716698645 16.116478614509106 18.226343549787998 11.384481053799389 15.935875743627546 8.8263846375048178 16.571063775569201 12.481011644005774 30.840192951261997 21.878721676766872 77.37361890822649 24.03797721862793 18.221502766013145 15.034857444465159 15.211950324475767 109.40455808490515 22.566975332796574 9.421692878007887 24.124986819922924 11.160814858973024 20.035030856728554 30.313183542340994 13.384414136409758 17.618739038705826 285.95303449034691 19.083130456507206 50.840017508715391 40.210268426686525 10.02457273006439 14.837185718119143 12.052930340170859 10.114922866225241 120.83607740700245 25.891570080071688 11.155864499509333 11.306214384734629 9.4410176761448366 12.113171376287935 19.594543401151896 9.6079742014408129 12.167871892452238 33.749356858432293 19.082292519509792 32.084455214440823 11.820600420236586 11.645706098526722 13.299909792840479 8.5214277468621713 13.847133934497831 11.049628771841528 29.371686398983002 9.380125377327202 23.510677143931389 41.552325461059809 8.913373399525879 8.6577347442507726 13.709977455437182 6.3509003594517699 9.5691108107566851 16.256392449140552 13.344134792685507 22.231652844697237 57.066456973552704 13.695576615631579 11.827838931232689 8.0292689055204374 6.6375757306814185 10.056295443326233 11.183415971696375 21.740498971194029 6.7251735031604767 19.563384026288986 6.9193302802741519 7.2028277181088916 7.3488197475671759 9.014133442193268 16.483342424035072 8.9534626826643926 7.0196729227900505 9.860483340919016 7.3022623173892498 9.7379410713911039 10.438562441617249
leaf_count=829 106 134 120 111 45 82 118 114 96 92 96 141 59 752 317 75 96 123 67 79 46 111 82 90 94 245 105 88 89 96 90 93 263 386 141 153 1624 365 144 143 115 149 109 91 160 153 137 90 127 86 294 245 869 153 155 123 113 623 155 95 101 109 98 287 171 132 2368 201 413 318 67 94 112 73 1281 256 70 95 73 94 266 107 123 178 69 350 97 155 77 108 119 87 226 97 157 470 83 110 143 76 90 136 88 173 531 140 102 75 75 100 83 316 73 77 90 90 79 140 84 112 82 87 69 84 128
internal_value=0.0534329 0.0609697 0.0457136 0.0401955 0.0721411 0.0706785 0.0735701 0.0770752 0.0649879 0.0883791 0.00721078 0.0523813 0.0623414 0.0849381 0.0689676 0.0572432 0.0276989 0.0984867 0.0328173 0.0317623 0.0500618 0.0899535 0.0472899 0.0598415 0.0985907 0.051761 0.0735097 0.0331207 0.0346249 0.0317789 0.0426664 0.01835 0.0639957 0.0804697 0.0568074 0.106732 0.0540882 0.0497227 0.0401189 0.026303 0.0679091 0.0383444 0.0185031 0.0921851 0.0779413 0.00721622 0.0210673 0.0440069 0.0979084 0.0461611 0.0369766 0.0209931 0.0204452 0.0480232 0.0706374 0.0230003 0.0977962 0.0865612 0.096733 0.0484537 0.068794 0.0630116 0.0764343 0.0230113 0.0325903 0.0442241 0.0478461 0.0167218 0.0520591 0.0279196 0.051641 0.0687966 0.0480533 0.0549374 0.0208865 0.0598444 0.0418205 0.064187 0.0896062 0.071108 -0.0303977 0.019417 -0.00545872 0.116018 0.0976765 0.0065836 0.0156922 -2.80692e-05 0.0381069 0.00496873 0.0109173 0.0860628 0.0771921 0.0284763 0.0952883 0.00946805 0.0183066 -0.00545608 -0.00676886 -0.0186577 0.0491457 0.0652485 0.0963312 0.0400529 0.030407 -0.00189277 0.0220543 0.0194621 -0.0138498 0.0401947 0.08588 -0.0387949 -0.015717 0.137107 -0.0198709 -0.0341878 -0.014586 -0.0300317 0.128403 -0.0314771 -0.00332912 0.0779906 -0.0303078 0.0156082 -0.0225831
internal_weight=2933.07 1867.09 790.902 1065.97 1076.19 1060.45 1031.24 936.981 455.072 481.909 117.232 673.669 264.954 462.876 433.444 249.605 81.4738 42.6531 801.019 792.555 652.254 41.0036 611.25 312.891 39.0707 549.43 110.71 776.355 755.369 697.182 354.21 166.279 187.931 115.789 62.0415 53.7472 273.821 255.245 70.8663 59.2901 58.1867 94.2552 23.267 120.553 87.9532 61.8202 50.4357 33.2837 69.7268 438.719 72.1423 52.7189 342.973 81.9619 42.2595 39.7024 255.735 160.483 131.972 206.952 207.141 183.016 131.645 326.922 190.425 426.238 375.826 50.4118 336.793 51.3711 197.531 30.3732 187.506 150.374 134.22 56.2048 22.6183 33.2498 39.6811 30.2401 29.2168 37.1325 24.6676 95.2518 52.8316 133.029 93.5955 38.7538 28.5119 17.3478 39.0334 88.4936 73.3121 20.4298 52.8824 136.497 86.287 50.2101 32.7931 25.1994 140.259 48.9076 29.6005 91.351 69.1194 23.3036 22.2168 18.5056 21.6272 18.1269 21.9435 35.7585 14.018 42.4201 20.9859 18.8485 39.4333 16.0504 32.5998 16.2005 14.0666 19.4233 14.9897 19.3071 17.152
internal_count=24757 14487 7001 10270 7486 7441 7093 6272 3396 2876 1309 5692 2158 2784 3156 2099 824 292 8112 8045 5551 266 5285 2377 254 4587 880 7854 7594 7048 3285 1626 1659 943 527 416 2123 1989 704 608 546 821 220 779 604 698 545 335 444 3707 716 539 3763 672 308 364 1406 968 778 1807 1378 1277 850 3527 1995 3621 3145 476 2781 427 1712 217 1645 1287 1452 543 164 271 356 283 348 358 241 438 247 1355 926 465 190 198 364 673 567 184 383 1532 952 580 344 321 1214 398 224 816 643 247 207 190 240 189 176 485 169 191 260 245 429 236 175 191 170 177 165 174 210
is_linear=0
shrinkage=0.05


Tree=7
num_leaves=127
num_cat=0
split_feature=8 10 32 20 32 3 9 3 9 32 20 32 32 10 20 1 1 1 20 32 1 32 1 20 32 1 1 2 20 32 2 13 4 1 20 1 32 10 15 10 20 3 3 1 2 10 10 2 1 32 32 1 32 10 2 32 3 3 20 1 1 2 15 2 10 2 32 20 10 2 10 3 4 4 3 32 2 10 32 10 10 32 32 10 10 10 32 10 10 10 10 32 32 20 10 32 10 18 32 10 32 10 20 32 4 32 4 32 32 32 32 32 4 20 4 32 10 32 4 2 2 20 32 10 4 32
split_gain=101.285 90.403 90.9079 60.1934 52.7193 46.6432 54.7048 44.4204 32.2857 57.881 32.2895 28.6458 39.1438 28.3665 27.5473 39.7449 53.4498 34.4345 26.4735 33.3255 32.0059 25.9966 22.9769 26.6601 24.5707 22.6624 19.8748 16.3812 25.1916 29.2899 20.7176 45.0275 28.5906 18.2396 27.4616 21.5458 18.3265 16.0948 30.0347 15.8702 15.5468 20.3218 25.1426 23.9575 15.4309 14.8147 14.6948 15.8398 19.969 22.3729 17.1918 13.2561 13.0877 18.9247 12.5745 16.2061 11.9993 15.254 11.8351 11.3076 16.8259 11.2155 11.195 11.3087 11.0141 10.3579 10.1803 25.7063 13.8812 10.0977 10.3552 10.0917 10.0396 9.82354 9.63895 12.707 31.6535 9.53558 9.41515 8.25726 8.04637 8.69057 7.6787 7.09758 6.98714 23.0336 15.7524 9.16684 13.2004 8.15826 12.903 6.72384 7.99513 6.48088 6.36043 6.19549 5.88728 5.86308 11.4727 5.5692 8.49978 12.5655 9.44673 8.83238 10.3435 17.0753 9.77574 8.17945 5.103 4.83273 4.56166 3.94845 3.75409 3.58629 3.5238 3.35193 7.21789 3.33054 3.22723 3.17279 3.16349 3.12815 2.77728 2.67617 2.40908 2.3506
